34 64
22 -0.17997323 0.46856782 0.0053104423 -0.2879003 0.55835253 -0.020620612 0.052968636 -0.046500146 -0.16247132 -0.44470504 0.27454016 0.32023716 0.0867184 -0.041261625 -0.11992802 -0.030935094 0.06567067 0.07694789 0.062071785 0.00013032174 -0.049664117 0.01784829 0.068255015 0.06954904 -0.02949652 0.03432018 -0.02690955 -0.01043193 0.03686088 -0.044598367 -0.06817785 0.10111905 0.021072911 -0.060206003 -0.07756603 0.04156473 0.084289804 -0.046955585 0.043936826 -0.117680326 -0.015948124 -0.00950316 0.038257472 -0.05644527 -0.06018001 0.11333847 -0.11052661 -0.090093106 0.01867025 0.053254258 0.035361532 0.02573772 -0.09843454 0.03739135 0.032858722 -0.006607066 -0.054416496 0.11341594 -0.05904244 0.055890013 -0.10751555 0.10823903 0.056496657 -0.020751616
21 -0.100013144 0.53472227 0.12282396 -0.26295197 0.51136976 -0.06517158 -0.014534324 0.026170982 -0.07292698 -0.30100417 0.23306298 0.4946207 0.0666606 -0.09391294 0.030352844 0.08696606 0.032511875 -0.05692333 -0.030670054 0.050978806 0.011234613 -0.0063045816 -0.050552495 0.01408857 0.017644132 -0.03641801 0.10713075 -0.0024822974 -0.014620409 -0.010279597 -0.039733935 -0.059479926 -0.009815192 -0.005946768 -0.057172082 -0.10449258 0.013796778 -0.011465505 -0.011019496 -0.024933772 0.067305066 -0.04476708 -0.0048741726 0.026414994 -0.029692838 0.025421906 -0.06946672 -0.07745036 0.047796182 -0.020136975 0.0020660802 -0.0095613655 -0.0024824517 -0.008384329 0.091273144 0.005800847 0.11893213 0.10858863 0.029318219 -0.05262794 0.037224293 0.098793484 -0.06609424 0.020804217
24 -0.234531 0.53932095 0.104119755 -0.26587903 0.40879473 -0.079526186 0.106166705 0.011160577 -0.15549839 -0.34329104 0.19513762 0.42107186 0.11165846 -0.05127154 -0.122628786 0.0057340185 0.032697443 0.021155896 0.043630116 0.010547455 -0.09457777 -0.10893851 -0.023701193 -0.012284646 0.03365805 -0.03902858 0.07815989 0.0069921757 0.049277406 -0.14065818 0.02116237 -0.028270172 0.038726237 0.104094006 -0.07930527 0.10433231 -0.004785422 0.007580963 -0.032154202 -0.0061713574 -0.016632758 0.07657061 0.029863259 0.039079178 -0.012435629 -0.040416438 0.033824675 -0.09270937 -0.025209296 0.0777964 -0.059157558 -0.017188402 0.09847641 0.004842967 0.034477886 -0.07905114 0.0940933 0.09574397 -0.00031680067 -0.06810506 -0.069071464 0.15082513 0.051265385 0.033258278
7 -0.27995017 0.5598694 -0.0006281227 -0.076969385 0.40360713 -0.29379833 0.03402422 -0.096636534 -0.19070666 -0.3792936 0.36196673 0.36121017 -0.062094647 -0.103328004 -0.0891801 -0.024561184 0.1386504 0.027945522 -0.120552994 0.004793274 0.10787325 -0.009422354 0.017677467 0.08142623 -0.09968662 -0.05173276 0.008437596 0.073716745 0.18629813 0.061334968 -0.17697182 -0.14600447 -0.037174266 0.034574077 -0.03509705 0.040994048 -0.091619454 -0.05098215 -0.01288817 -0.04169898 0.011190365 0.040041827 0.005944814 -0.033290114 -0.031419717 -0.039069984 0.1092956 -0.032718852 0.1724699 -0.10755791 -0.009730147 -0.070369646 0.112511754 -0.045335352 -0.024329629 -0.03189607 -0.064921334 -0.088602565 -0.003335809 0.011156291 0.033646237 -0.09910013 -0.053730916 -0.07493603
15 -0.13345605 0.45283356 0.098173544 -0.15838431 0.43923518 -0.20810002 -0.09947745 0.0949156 -0.20507786 -0.5896571 0.22930497 0.34471235 -0.11750309 -0.016625948 -0.06897935 0.06740891 0.00936485 0.043035217 -0.006501238 0.097970225 0.106232576 -0.048472807 -0.02288195 -0.14903487 -0.0009316849 0.021141922 -0.035530683 -0.031210518 0.08459973 0.06649957 -0.1552913 -0.09172845 0.08858322 -0.020976495 0.009787768 0.07890452 0.11364142 0.02445247 -0.030159827 0.09031117 0.08048577 0.060762823 -0.025897905 -0.060170688 -0.05321573 -0.05316811 -0.024671948 0.04756348 -0.029729854 -0.066808574 0.07472188 0.05402002 0.03228146 -0.0068173986 0.05909199 -0.102690205 -0.13171789 -0.11119303 0.04857104 -0.017353486 -0.076468736 0.07548864 -0.08429121 0.028911889
8 -0.34753394 0.55664605 0.04532037 -0.16507988 0.42082357 -0.18768752 -0.08129084 0.039730463 -0.13467897 -0.43745333 0.16429284 0.41118264 -0.04502677 0.07325329 -0.084791794 -0.0072555305 0.048109032 0.0084994305 -0.074742384 0.028134987 0.09101138 0.00029007465 -0.056509618 0.032940634 -0.08867629 -0.1012062 -0.05862444 -0.0103652235 -0.025724849 -0.06390761 0.11427022 -0.10946987 -0.07804518 -0.003488327 0.049277984 0.059073813 -0.0934493 -0.076374434 -0.011484765 -0.0148713915 -0.049681917 0.043566898 0.05825884 0.02953699 0.028801808 0.068349056 0.0733616 0.020728204 0.10916829 -0.06739696 0.12819245 -0.0987803 0.010405838 0.03931706 -0.14012167 -0.06507463 -0.06657619 -0.1909389 0.0012029515 0.05202954 0.011067557 -0.13567452 0.007777787 0.040295362
6 -0.29332158 0.55145115 0.10797167 0.03468411 0.41694376 -0.123029485 -0.093422934 0.010341867 -0.28073764 -0.4198986 0.31505293 0.3579658 0.032562338 0.13375284 -0.104733884 -0.030662887 0.069690615 -0.029246077 -0.10820382 0.10136759 0.16051418 -0.058046766 0.032293927 -0.033892587 -0.05265004 -0.056827568 -0.00087976316 -0.024585534 -0.02210565 -0.08236091 -0.0006514496 -0.21086016 0.036961626 0.098313995 -0.07708206 0.098598346 -0.09063553 -1.2580978e-05 0.095662005 -0.025719745 -0.16448931 -0.018284673 -0.035178125 -0.14594248 0.05278369 0.10427255 0.014602049 -0.12429329 0.059916142 -0.11506779 0.014347954 -0.0028774603 -0.07015515 -0.058172107 -0.010679878 0.023621257 -0.052563537 -0.15318093 -0.02232013 0.013197232 0.012721546 -0.1033215 -0.056894 0.012786497
9 -0.27906713 0.44733754 0.014364548 -0.13120444 0.37384665 -0.22468579 -0.035211824 0.09981247 -0.20268424 -0.4379882 0.32420546 0.50970984 -0.018147163 -0.06347822 -0.0016572863 0.035534568 0.031925894 -0.05172761 -0.15275711 -0.033134688 0.12114985 0.112264246 -0.0016398855 0.03934821 -0.08611196 0.005934534 -0.06030787 -0.080806784 0.092123315 -0.15134265 -0.0888494 -0.12919897 0.0064532533 -0.012347169 -0.069699496 0.10995351 -0.005975137 -0.027828543 0.054965 -0.021975458 -0.03944149 0.078757614 -0.02000156 -0.15089299 0.032929048 0.0107807275 0.07032526 0.009078751 0.01059169 -0.061525065 0.018009102 -0.08737626 0.064266965 -0.0134289535 -0.004396713 0.016908078 0.00057739794 -0.15314607 0.0005351634 0.051457483 0.05604885 -0.10266689 0.0071427613 -0.09354625
14 -0.2748351 0.65455455 0.041517027 -0.061825003 0.45507303 -0.031017637 0.070565954 0.004746758 -0.22366329 -0.46137345 0.13664122 0.29800263 -0.0037159596 -0.04320534 0.04301457 0.11503643 0.056447167 -0.03514578 -0.04467418 0.026909346 0.01860101 0.08141091 0.035584234 0.038893305 -0.024055239 0.066185705 0.046592772 -0.093381114 0.1050238 0.035963204 -0.0044499654 -0.05382447 -0.013419864 -0.07960532 -0.053506523 -0.029235559 0.008275259 -0.038143486 -0.032317247 -0.08476005 0.0496145 0.018137671 0.0024398908 0.004054897 -0.13287593 -0.060622513 0.0261964 0.10433504 -0.18843913 0.007985517 -0.08370519 0.007104528 -0.024106445 -0.13364701 -0.008706306 -0.08173045 -0.010479468 -0.17876506 0.057576224 0.052012343 -0.075669944 -0.057754856 -0.020405661 0.058146488
20 -0.18265249 0.4508553 0.12415114 -0.13504069 0.61499363 -0.1397978 0.010641924 -0.09518151 -0.11165753 -0.40650895 0.15498635 0.39013216 0.06687569 -0.019050186 0.028687108 -0.02658345 0.0060344217 0.001625242 0.02164661 -0.037944663 -0.07739439 -0.030582063 0.08483459 0.04486299 0.016020972 0.04190971 0.018516345 -0.0016865345 0.1465062 -0.15165742 -0.11190563 0.04311235 0.03578445 0.03296833 0.0029499317 0.061047353 0.038349543 0.045854475 0.019990891 -0.006018082 -0.07248057 0.013803818 0.027208854 0.047388855 0.021222945 -0.084334895 -0.0011867982 -0.07122728 -0.10077582 0.066418655 0.029521896 0.07126653 -0.046706572 0.02625834 0.023535956 -0.18005925 -0.02648998 -0.03556164 0.0116115995 -0.014908576 -0.052580483 0.06494541 -0.058222633 0.033666644
10 -0.25900838 0.65540195 0.048753694 -0.13482638 0.3858616 -0.1500608 -0.05417054 0.019596558 -0.22079688 -0.36610222 0.3000862 0.3407594 -0.13081689 0.031537328 -0.091960125 -0.042426553 0.18618588 0.0339089 -0.09553241 0.04945766 0.07842989 0.04248994 0.025251428 0.05868502 -0.07515507 0.007482947 0.04654941 -0.10384769 0.12518272 -0.050257258 -0.027311984 -0.05528535 -0.0072347163 -0.011439193 0.040993337 -0.060090918 -0.12794949 -0.026596637 -0.034979038 -0.0072753737 -0.056912646 0.0008984685 -0.038899172 0.0071848184 -0.018194797 0.07278223 0.15453425 0.07773948 0.04024374 -0.051322628 0.019090824 0.004273846 -0.020916471 0.035521142 -0.1237378 -0.08052668 -0.096571766 -0.19671054 0.023596369 0.041354537 -0.064491555 0.059431482 -0.1629445 -0.08482497
18 -0.13533404 0.5665717 0.07334945 -0.23227343 0.5287184 -0.07262477 0.03368156 0.029454375 -0.08912872 -0.3779191 0.20777304 0.44461814 0.053503376 -0.15041935 0.03466516 0.0475765 0.045343913 0.040680423 0.044829823 0.04115848 0.012010811 0.033954475 0.07789919 0.00929494 0.018635252 0.10062679 0.0293034 0.01538501 0.12709045 -0.048457406 -0.029409787 0.031538565 0.020825623 0.11133597 0.055689514 -0.054229904 0.04301106 0.036826834 0.015433172 0.11285201 0.026152255 0.016948424 6.1529725e-05 0.030391581 -0.162346 -0.041336022 -0.07552946 0.052286465 -0.03165359 -0.10043678 0.01991852 0.019518107 0.03060763 -0.054834165 0.070652544 0.05649344 -0.13347349 -0.13876516 -0.003253312 0.074063905 -0.07796347 0.033128843 0.05359933 0.0650694
19 -0.17869869 0.4890698 0.14170392 -0.15403935 0.5418184 -0.03963917 -0.009249321 0.03961084 -0.164135 -0.4418256 0.14300953 0.44781774 -0.019060025 0.013032479 -0.058314305 -0.036958687 -0.008568025 -0.01704063 -0.0011677118 0.0010038842 -0.060534343 -0.11743066 -0.036107384 -0.027032334 0.008482986 -0.0997601 0.015371984 -0.027102714 0.09118794 0.060295366 -0.08274897 0.08307886 -0.0647546 -0.04103606 -0.025525704 -0.043910723 0.028454883 -0.09704067 -0.0143275745 -0.08377104 0.09996175 0.008844979 0.054093856 -0.0053686015 0.00051644235 -0.03369606 -0.09155064 -0.0381556 0.0053959717 0.0009805014 -0.017642546 0.0053712483 0.01562758 -0.11162966 -0.015503246 0.009610188 -0.05919843 -0.021562602 0.023189554 0.087920025 0.06865116 0.10725921 -0.076270595 -0.046426874
5 -0.26162845 0.4573307 0.04439018 -0.104717754 0.43319282 -0.21260084 0.051805366 -0.057718504 -0.21810631 -0.38001007 0.4576192 0.35441783 0.04049681 -0.005823849 -0.13398482 0.009861176 -0.01670836 -0.08082317 -0.08497959 0.01375571 0.031583317 0.030783169 -0.078538254 0.04271499 -0.07879296 -0.14754052 -0.07469578 -0.16000767 0.1437953 0.012234569 0.089932926 -0.15181357 -0.09167332 0.036499407 -0.01964567 0.04324632 -0.10462036 -0.043866593 -0.033276442 -0.07372436 0.05410951 0.015338779 0.041839126 0.042779885 0.0036155512 0.06202824 0.13164042 -0.100996085 0.08360342 -0.06814321 0.20099328 -0.08006705 0.08121857 -0.005223572 0.08182929 -0.0062916684 -0.041333467 -0.17429066 -0.01154615 0.13662325 -0.054446146 -0.10309023 -0.039008163 0.10298801
16 -0.12195688 0.5727157 0.07458057 -0.14534335 0.48753613 -0.06061659 -0.11315119 -0.03227128 -0.19978327 -0.42488497 0.20438783 0.42280686 0.12358134 -0.1380947 0.054310795 0.08723612 0.055732798 0.06063663 0.042468168 -0.022021823 -0.06751376 -0.023218988 0.019547224 0.0441602 -0.015198019 0.009861576 0.021559294 0.051821105 0.0256187 0.11276653 0.037041083 0.033396762 -0.005421282 -0.02847003 -0.0027658024 0.005998937 -0.002706771 -0.063196816 0.0016712319 0.01833793 0.052783675 -0.001032513 -0.018154373 -0.1027892 -0.097190835 -0.017638963 -0.020658607 0.011062548 -0.12273221 -0.0062793675 0.016292855 0.02531742 0.071599886 -0.020338556 -0.012473003 -0.08932031 -0.119632296 -0.144903 0.057325915 0.014672095 0.070958935 -0.06944171 -0.011053122 -0.032850467
17 -0.1951566 0.463653 0.09613184 -0.12123343 0.5126484 -0.15940094 -0.018179825 -0.03554293 -0.23327483 -0.5507944 0.13280672 0.2987519 0.014664063 -0.01573644 0.08976378 0.020785647 0.1030574 0.037346683 -0.07599297 0.003545912 0.0805088 0.039481293 -0.05641445 0.04433708 -0.06853386 -0.035551872 0.014119202 0.0525478 0.06783398 -0.0015609238 -0.04359471 -0.03001282 -0.066968694 -0.037677974 0.030630015 0.022376353 0.029132303 -0.1307653 -0.010196143 -0.02751704 0.07644327 0.03845953 0.08906389 -0.009987851 -0.010080705 0.037288107 -0.10060375 -0.026707094 -0.09290446 0.082760945 -0.02417851 0.0921403 0.05729814 -0.10562432 -0.030409133 -0.11789423 0.01346862 -0.06203197 0.0013514921 -0.029164163 -0.0151553545 0.12577127 -0.12387883 0.07593044
11 -0.18024495 0.5504088 0.0403584 -0.07944181 0.4622344 -0.11484393 0.029606614 0.033587538 -0.1480326 -0.45915848 0.28618684 0.4153046 -0.051547684 0.0421152 -0.039738238 0.092025064 0.12047958 -0.023274232 -0.15879577 0.035893943 0.12140677 0.031783056 -0.073699914 0.033835758 -0.10708969 -0.07534907 0.01702679 -0.049837727 0.019557768 0.053092323 -0.13018042 -0.102980606 0.056403954 -0.04634346 -0.011448594 0.094820894 -0.019149477 -0.02047718 -0.05683956 0.013775969 -0.040976677 0.08713743 -0.007722649 -0.00069759425 -0.014621137 -0.03338772 0.035114884 0.09355284 -0.0118974745 -0.024411142 0.044983726 -0.07863795 0.0864415 0.03781641 -0.07001453 -0.13804752 0.015307708 -0.18166111 0.05806778 0.0020193204 0.006224786 -0.019506013 0.20138775 -0.08648626
23 -0.2180994 0.5657013 0.09623632 -0.12605898 0.4489019 -0.13489442 0.015685795 -0.057422224 -0.12308995 -0.39415437 0.18919763 0.3592168 0.10939637 -0.14327322 -0.044277195 0.0064992583 -0.066219054 -0.12768483 -0.059430666 0.08089897 0.08739282 -0.07472419 0.08149714 -0.041274007 0.038582947 0.014438652 0.06567403 0.039239492 0.08138918 -0.05091296 -0.02738746 0.04793443 0.0027471266 -0.060949806 0.0478869 -0.01617256 -0.04219955 0.03240557 -0.023882747 0.010155051 -0.057616074 -0.045443628 -0.018016554 0.05699972 -0.014126943 -0.07534869 -0.08376061 -0.07272261 -0.010741106 0.084500834 0.022046125 -0.10558193 -0.06427405 0.08393858 0.046332955 -0.052566856 0.10847615 0.080650434 -0.005049939 0.12495073 -0.011737301 0.14320244 -0.04886119 -0.10541982
25 -0.15378115 0.46360222 0.17196816 -0.18274699 0.5001971 -0.1607059 -0.026291713 -0.07205724 -0.1313172 -0.27421197 0.2583838 0.47331592 -0.06721445 -0.06455832 -0.06422227 0.0069927657 -0.009142366 -0.00054597936 0.01580164 -0.014703603 -0.061272033 -0.056761373 0.07163086 0.019333046 -0.0120593095 0.006035466 -0.021386705 -0.026069209 -0.07362799 -0.073527835 -0.052463327 0.013913321 0.029753499 -0.10713701 -0.091705956 -0.032944985 0.07553878 -0.030089868 -0.032570906 -0.13065362 0.035624154 -0.02570904 0.01924217 0.03014154 -0.04816625 -0.078152806 -0.043462407 -0.002589691 -0.035539676 0.040341523 0.024357306 -0.023285944 -0.0764059 0.06539851 0.02474266 -0.007854333 -0.0064051533 0.12352354 0.020827707 -0.0057701776 -0.11729495 -0.0022284805 0.055026866 0.070734076
12 -0.25096777 0.5035654 -0.027989764 -0.18765713 0.33525684 -0.20732433 -0.016068678 0.090517335 -0.27183443 -0.45295516 0.31356826 0.41347557 0.014661948 -0.04787247 -0.116996035 0.06604384 0.058624227 0.035790097 -0.048267365 0.061659697 0.10843707 -0.028864816 -0.049615867 -0.0743994 -0.018938791 -0.0066959043 0.017988505 0.029071063 0.07236539 -0.123079404 -0.02608745 -0.017205397 0.031014875 -0.10940768 0.0025810124 -0.020369349 0.031668894 -0.0510758 -0.013585939 -0.02664991 0.008943738 0.009049208 -0.020350367 -0.06752086 -0.116624 0.0392712 0.10963012 0.038918797 -0.058493484 0.011838417 -0.057726383 0.012510128 -0.02194502 -0.020797765 -0.11079305 -0.15742373 -0.10308256 -0.16964644 0.040514402 0.06563318 0.068052925 -0.1185238 -0.076764196 -0.031366292
4 -0.30625466 0.57788765 0.075242475 -0.17877413 0.40273377 -0.22858533 -0.08916948 0.055621747 -0.20815963 -0.449165 0.18160158 0.29609546 -0.027489685 0.045744866 -0.083504915 0.02893198 0.030419488 0.004258252 -0.020663008 0.023279704 0.07388163 0.0633615 0.051078428 0.054974616 -0.032627385 0.039095122 -0.015873164 0.03344894 0.08322927 0.07215991 -0.110903576 -0.17614515 -0.04027053 0.052643683 -0.01351669 0.052613236 -0.074219905 0.080965415 0.03848172 -0.027028343 -0.07729849 -0.034243193 0.0020757194 0.05056964 0.17559348 0.088457815 0.08846031 -0.119663246 0.16163093 -0.07822427 -0.026659286 -0.020397421 -0.076082766 -0.05154033 -0.05948418 0.014126996 -0.028044675 -0.038012903 -0.061268456 0.017897554 0.110655434 -0.28658104 0.05272344 0.010395066
13 -0.17898695 0.55736685 0.16383769 -0.18066052 0.38335198 -0.15087362 -0.12292036 0.051175196 -0.25334483 -0.47592583 0.16008016 0.42276067 -0.05872476 -0.053661544 0.03424298 0.0011702895 0.09648073 0.02657686 -0.07520321 0.022455368 0.06578405 0.06544606 0.04206357 0.030428315 -0.106986046 0.0162675 -0.07426135 -0.14697996 0.058088023 0.116464265 0.018349323 0.00944326 0.044372026 0.006044106 -0.068494074 0.11312821 0.00612626 -0.0046575507 -0.052379135 0.018899182 0.07776214 0.086588934 -0.031807106 -0.07039134 0.025917776 0.02635214 -0.006502836 0.065176845 -0.03654874 0.011068745 0.073238015 -0.10722667 0.09954599 -0.006474723 -0.039042417 -0.13875791 -0.0046757245 -0.13897365 0.06698494 0.027898328 -0.015489551 -0.007861839 -0.059847783 -0.07008573
26 -0.24505396 0.45723763 -0.052376 -0.19067244 0.52445906 -0.031762574 0.003191928 -0.043956216 -0.24359247 -0.3766252 0.26860714 0.2645467 0.06324886 0.040286936 0.037295934 0.0136279585 -0.011770719 0.06389962 0.07519411 -0.03100295 -0.06534551 -0.0128685655 -0.02203776 -0.046960946 0.053350974 0.046219654 0.00966365 0.035637196 0.04578493 -0.08898399 -0.05563875 0.012328731 0.0652483 0.041063637 -0.06661522 -0.09539064 0.01629839 -0.0073856087 0.020485241 -0.02682052 -0.031996798 -0.027506435 -0.04086448 -0.04564658 -0.054112863 -0.06497557 0.02023107 -0.01834809 0.024238007 0.0072290837 0.052266713 -0.113235295 0.005210662 0.16058053 0.008509983 0.030158255 0.12863214 0.10946463 0.11748673 -0.0082141645 0.027779559 0.11482024 -0.022261769 0.012701076
27 -0.2217351 0.5160241 0.15260485 -0.13732545 0.31671888 -0.106856756 -0.06702938 -0.125663 -0.29018986 -0.32323322 0.24734828 0.3918139 0.008118155 -0.012987478 -0.09312105 -0.07226057 -0.1733523 -0.11795783 0.023740767 -0.076563105 -0.038548782 0.05674966 0.034376148 0.02048674 0.09058261 0.07517295 0.033952564 0.10322471 -0.017340135 -0.0483781 -0.034623206 0.03169288 -0.033371426 -0.13274866 0.08012466 0.07161298 0.051187463 -0.026690062 0.02232016 0.034041155 -0.014237495 0.01952901 0.026391378 -0.039472226 -0.058860175 0.021559658 -0.0463866 0.04941062 -0.0017338938 0.060524963 0.02049459 0.019860186 0.09182766 0.05589451 -0.018300153 0.0574151 0.13137792 0.04187468 -0.042233653 -0.091973074 -0.087970816 0.09708995 0.10554214 0.015594189
28 -0.28839007 0.33222857 0.079909205 -0.15434486 0.4709711 -0.23287785 0.022858704 -0.034257 -0.2065405 -0.3708643 0.26714355 0.32216287 0.06079487 -0.033957295 0.09406635 -0.02295817 0.0005806539 0.10621332 0.101126246 0.014619827 -0.040260654 -0.062029876 -0.0015500919 -0.08352773 0.02926317 0.013068805 -0.04717883 0.0131380735 -0.073573634 0.008930472 0.063624 -0.05377531 -0.002253341 0.008295498 0.012769201 -0.06334002 -0.0790232 -0.052113414 -0.008339521 0.009678989 -0.002079407 -0.038728308 -0.04245052 -0.07103699 0.048747152 -0.15283783 0.06346701 0.061461102 -0.12472994 0.11214379 -0.14168651 0.004448578 0.03112097 0.107292876 -0.041465547 0.14362031 0.021765903 0.10258474 -0.047349054 0.08208839 -0.06243281 0.067932725 0.12741055 -0.0392247
3 -0.287726 0.48439717 0.02713 -0.042606376 0.326899 -0.19154525 0.035667017 0.050510727 -0.26791906 -0.454068 0.3944107 0.35427943 0.019459328 0.061123397 -0.07608953 0.03718193 -0.0045520044 -0.08232009 -0.08501189 -0.03267329 0.015027495 0.06708983 -0.0072031794 0.10157435 -0.054472577 -0.037154015 -0.0013831679 -0.025854215 0.1418167 0.026627382 0.13271308 -0.21160986 0.016089953 0.14328524 -0.042712394 -0.041948285 -0.12762421 -0.09327236 -0.030798076 0.03587617 -0.0167083 0.07353978 -0.03468124 -0.07659086 0.044559583 0.0147825545 -0.10167152 0.010915054 0.1841236 -0.11145935 -0.0048323744 -0.092786245 -0.08326561 -0.07652367 0.040054742 -0.17547464 -0.13030706 0.0432993 -0.020371351 0.010376962 -0.06106227 -0.16821268 -0.053442366 0.02389467
29 -0.22964278 0.4994307 0.06323337 0.004625917 0.41022953 -0.15304008 0.049935397 -0.042922314 -0.34035522 -0.30604544 0.23589732 0.2681168 -0.04783578 -0.03762188 0.020794325 -0.090069026 -0.087016664 -0.043426566 -0.032123648 -0.029759627 0.050379224 -0.03406444 0.011078303 -0.07395848 0.040125404 -0.009141518 -0.03838826 0.032694373 -0.053015742 -0.055753563 0.03196939 0.1480759 0.07809185 0.051219083 -0.006938969 -0.009950054 0.061075173 0.07805197 0.025123784 0.029982107 -0.04353463 -0.0024839921 -0.027186468 0.0101100905 -0.04939013 -0.05351593 0.053634353 0.11774548 0.025477387 0.062468257 0.0793627 0.08361138 0.07048439 0.117545694 -0.051073786 0.17866363 -0.016858524 0.14953464 0.030046035 -0.09184099 0.10883143 0.060725797 0.027524766 0.090695955
30 -0.33382672 0.3469156 0.03485563 -0.11526797 0.36284125 -0.27918044 0.023666548 -0.14884338 -0.27997208 -0.33264008 0.3442757 0.29063514 -0.0002515236 0.11130575 0.043627433 -0.10771383 -0.05338209 0.050677087 0.07501701 0.012069268 0.013689725 -0.0095471125 0.024199784 -0.048187047 0.02638959 0.048894286 -0.04625427 0.086070865 -0.13282548 -0.010765521 0.07506999 0.082236454 0.009688395 -0.023352725 0.012155991 -0.048693 0.013929162 0.06543239 -0.01521053 -0.008919866 -0.012205782 -0.049700506 -0.013853269 0.08073986 -0.051895797 -0.06590637 -0.011446826 0.038285106 -0.014570223 -0.120998465 -0.12255596 -0.008561352 0.037742127 -0.023694178 0.040348597 0.03588415 0.12532328 -0.061973624 0.0483894 -0.09661624 -0.022158211 0.115149744 0.045235142 -0.13491099
2 -0.29727668 0.5188793 0.12284445 -0.083379954 0.32368305 -0.19797862 0.07865258 0.06791829 -0.301878 -0.39987725 0.41341302 0.27146518 -0.09535793 -0.14006068 -0.004185124 0.095674 0.08188591 0.019632973 -0.052192766 0.04388191 0.014109839 -0.073520094 -0.0317731 -0.038486037 -0.04841416 -0.08891855 -0.01763818 -0.13082318 0.051119536 0.015416932 -0.13155967 -0.009176977 -0.04891959 0.0431717 0.07020704 0.011857263 -0.059440594 0.028280413 -0.0059207827 0.0024829435 -0.017129678 -0.067207135 0.038095936 0.09836767 0.18381152 0.2034656 -0.04805685 -0.21249093 0.03864915 -0.093213364 0.07223193 -0.043318752 0.016359473 -0.0003396852 -0.025731508 -0.0015966846 0.035225853 -0.15765996 0.101467945 0.0116937505 -0.047613572 -0.27456287 0.023415389 0.1257234
31 -0.2659038 0.36076158 0.049363 -0.076285474 0.46379405 -0.03571962 0.15994112 -0.17116708 -0.3103523 -0.31010848 0.22664686 0.40804258 0.038933784 0.08197561 0.08828262 -0.07244674 0.04821924 -0.008352737 0.015460279 0.0074031767 -0.048178405 -0.009348484 -0.027430149 0.017342731 0.044960596 -0.017381283 0.09967955 -0.014002701 -0.1779702 0.040987086 -0.035210907 0.05451223 0.017084224 -0.042103812 0.14372458 0.024891771 0.0832083 0.06680258 0.07331075 0.22818264 0.0358024 -0.01139181 -0.07350942 -0.15705521 0.013448718 -0.07344692 0.14686956 0.0815619 0.07188466 0.10227748 0.03726819 -0.060713336 0.009378347 -0.034797795 -0.03083835 0.0880207 0.030575616 0.095412746 -0.10802562 0.10457863 -0.042276453 -0.005114218 -0.019790491 0.04700711
1 -0.1890554 0.53637433 -0.0125928745 -0.19977336 0.31788623 -0.21788597 0.015646782 0.011818359 -0.35694683 -0.35878253 0.38905016 0.32107925 0.031222256 0.17666113 -0.113257885 0.036560614 -0.053682216 -0.09752221 -0.05673684 -0.034491457 0.0056362906 0.08022821 0.016313288 0.051323052 -0.019303676 -0.0023131536 -0.021361135 -0.06316602 0.10216205 0.2258674 -0.14145917 -0.17018832 0.05078963 0.2080142 -0.016940784 -0.03701045 -0.091166995 -0.06303124 -0.051383253 0.025962638 -0.048666105 0.061241522 0.024959581 0.05891873 0.18966985 0.12685657 -0.0710281 -0.017856631 -0.03412134 0.053131167 0.057784915 -0.026013628 -0.0984083 -0.019343177 0.010713396 -0.049878825 -0.029409697 -0.11965917 -0.0649323 0.15510689 0.07745293 -0.18631525 -0.0529355 0.051920548
32 -0.4951592 0.29198954 0.14537664 -0.08037535 0.39426476 -0.18535472 0.19818197 -0.047886394 -0.2774809 -0.22661294 0.22782621 0.44694582 -0.07976101 0.061077826 0.028057033 0.118634254 0.047785237 0.07919486 0.058094036 0.057064865 0.022481661 0.02413684 -0.00026486206 -0.015023594 -0.013822388 0.053024773 -0.006214653 0.014665295 -0.027885707 0.084759854 0.08665483 0.12465287 0.0018408819 0.023868393 -0.018781504 0.101996735 0.054620627 0.16751792 0.052051447 0.04656574 -0.06481044 0.007496885 -0.0017001843 0.07914963 -0.09043211 0.015051975 -0.028749045 0.07096533 -0.07399849 -0.0013544766 0.060907744 0.060070544 -0.039248034 0.0008798659 -0.015244943 0.07046025 -0.041502807 0.037627842 0.032349423 -0.10614035 0.13935216 0.0778164 -0.016565735 -0.06165609
0 -0.19742881 0.46412796 0.14492938 -0.040553033 0.29728764 -0.11310542 -0.024138305 0.043790963 -0.33231622 -0.5833175 0.3983956 0.2657022 -0.08254406 -0.0030265215 0.005079369 0.1287415 0.023065668 -0.007708497 -0.018909104 -0.06768763 -0.09702072 0.055162795 -0.088258006 0.07178548 -0.022618717 -0.023397757 0.029900702 -0.06556285 0.07726235 -0.11547124 0.07973572 -0.12365088 -0.08244581 -0.029190442 0.039355133 0.031143816 -0.07877072 0.04462816 -0.02831968 -0.0028749802 0.007838242 0.006155307 -0.0040106457 0.065880544 0.16254741 0.020633265 0.06106523 -0.1340407 0.13618043 -0.1562652 0.010350525 -0.016262222 -0.095074914 -0.11455054 0.10200962 -0.17864382 -0.13729699 -0.011088086 -0.0058713914 -0.015263877 0.038011547 -0.14322405 0.05931698 -0.020800315
33 -0.16956548 0.48125616 -0.12065172 -0.11273534 0.40433124 -0.24015269 0.123615965 -0.13349174 -0.20073546 -0.45278206 0.275913 0.2362529 0.10857432 -0.03939673 0.07087066 -0.19201607 -0.07016778 -0.08319079 -0.03928772 0.0010000058 0.022325257 -0.047167275 -0.003140276 -0.029655617 0.017615194 -0.092506304 -0.030509448 -0.051437367 -0.23709337 0.0017591489 0.033911455 0.13546449 0.07849692 -0.0054215547 0.030663975 0.01809855 0.097985364 0.0818276 0.010285179 0.047362145 0.014715634 -0.0032825544 -0.027523117 -0.007208701 0.06339597 -0.044452854 0.13780136 0.06128218 0.015349355 -0.031610094 -0.096666574 0.13621709 0.021944683 -0.04610623 0.08424904 0.02296043 0.026377276 -0.009838171 -0.09005337 -0.057261612 -0.0026348892 0.02615713 -0.028269226 -0.086080484
