98 64
0 -0.3057813 0.03925193 -1.433009 -2.2722394 -1.26536 0.6954917 -1.3202747 0.962516 -0.7962033 -0.7437114 0.8758789 -0.104689844 0.10818916 -1.0029893 -0.9019325 0.06799735 -0.47574556 0.9352212 0.22262695 -0.30926293 0.63387585 -0.585946 0.23761298 -0.28406078 0.3337251 -2.0534031 0.15372586 0.021639084 0.24767593 1.2398833 2.6116781 0.287529 -0.62280047 -0.77315795 0.3182284 -0.17092487 1.3981766 -0.35429177 -0.5230904 -0.047423575 -0.7077251 -1.5052978 1.1544695 -1.5916457 1.978581 0.77013135 -0.26492932 1.0071864 0.3882324 0.5094798 -0.8770475 -1.2863419 -0.33233115 -0.79508454 0.14790031 0.94146174 1.1426116 -0.7949562 0.09276126 -1.353622 0.071260475 -0.9002549 -0.78072846 -0.34496123
1 -0.6579266 -0.28120524 0.18427925 -0.28072006 -0.22462046 -2.4076102 0.08039359 0.17760317 1.193014 0.5318918 0.48663667 -0.115925714 0.75727594 -0.34113237 0.69238394 -1.0896642 3.2937427 -0.7033425 -1.2812223 -0.84672695 -1.412596 -2.1045074 0.3900687 0.11341836 0.22515136 0.547021 -1.1731877 0.3169156 -0.0010188209 0.034921017 0.017024517 -0.4178773 -0.57476157 -0.5640676 -0.81211287 0.6064704 1.3295969 -0.104345605 -0.2119946 -0.45588824 -0.5815522 -0.015832974 -1.7445333 0.44015077 0.65125775 0.28331682 1.8283529 0.7589809 -0.6497716 0.41746208 0.21730757 -0.6096115 0.3112409 0.9931864 -1.0371609 0.8568306 0.5117787 1.6474122 0.47218254 0.81708807 0.57460576 0.27977908 1.4194505 0.0032532574
2 0.1333675 0.55718714 -1.0208699 -0.62606233 0.40044126 -0.046096332 2.0713964 1.0840052 0.5808962 -2.7404175 -1.9358045 -0.35169095 0.4274616 -0.47707173 -2.4366806 -1.0200924 0.61198884 -0.21490587 -0.27916396 0.14536746 -0.33606416 0.4283495 -0.91153365 -0.8382672 1.5039067 2.392012 0.13534841 0.22047076 -0.57101107 0.6001878 -0.48924312 0.77903086 0.6296228 0.3143476 -0.8693008 -1.3066201 1.0443137 -0.19746983 -0.6287569 1.902649 -1.4501512 0.61994326 0.5644416 0.14663216 2.0182457 0.62551606 0.4426142 -0.16339137 -1.0136093 -1.2674668 0.5812219 0.10116475 -1.4975878 -0.9164841 1.1948756 -1.3091661 -1.2217038 -1.0202103 -1.1429493 1.8318323 0.10990297 -0.5449549 0.9689286 0.34511793
3 0.19917332 0.49571264 -1.414916 0.8051035 1.3047948 0.024430001 0.401782 -0.5161737 1.1968162 0.30390665 1.1140887 0.055259574 -1.7650406 -0.11391523 0.08190626 0.6130278 -0.5770262 0.11634756 -1.4046274 2.315407 1.9702879 0.8896231 -0.05927031 1.2414285 -0.94490594 0.6652669 -1.5075421 -1.327568 -0.099175185 -1.6280426 -0.87586635 -0.47277018 0.5792315 -0.009416976 0.47337988 -0.8883254 1.7316581 -0.847016 0.46269146 -1.8685856 0.51479113 1.0590724 1.1391498 -0.99175763 -0.64399093 0.5592549 1.1322199 -0.9502995 -1.1349145 0.5538137 0.41529825 -0.7358659 2.7766385 -0.11842222 0.029210173 -0.41417497 -0.23176679 -1.600747 0.7144665 -0.91037637 -0.4857447 -1.0254571 1.5151609 -0.61640877
4 -0.5856388 -1.2116598 -2.5754225 -0.42501244 0.99464077 1.0292537 0.53236896 0.36264828 -0.8515262 -0.02831186 1.4689828 -1.0162463 1.1121904 -1.1388893 -1.7595232 1.0570223 -1.0582536 0.62244487 -0.25501168 0.56106895 1.1924474 0.48851433 0.422142 1.163209 -0.90150523 -0.43388414 0.057515096 1.4568207 0.64498067 0.5044608 -0.40145943 0.13776472 -0.5573768 -0.47809553 0.07179678 0.21977411 -0.3060687 -0.9085715 -1.8045008 -0.29271436 0.48676816 -0.23577671 -1.184297 -0.19706005 -0.005158923 0.0121759875 -1.0273488 -0.6233669 -1.3183627 0.8687818 1.0362543 -0.33027196 0.59419924 0.45732284 0.95699966 0.6973845 0.99014324 -0.50301063 -0.62174666 -1.4885614 -0.22165856 0.3702248 0.32122055 -1.0923538
5 -0.03790045 -0.12025577 2.447751 -1.3529515 0.01789774 -0.027440773 -0.29152468 1.8339007 1.1292955 -0.5788627 -0.52966774 0.3154997 0.66749483 0.55181694 0.2956649 0.51775616 -0.088128746 -0.9740189 -1.2609514 0.12706557 -1.1842673 -0.07256251 -1.0665289 -1.4922892 1.2520759 -1.6246482 -0.09789282 -0.9191178 0.9783839 1.2263888 -0.18835227 0.5798308 -1.1354307 -0.12921125 -0.44247386 -0.34645286 0.86764 -1.104437 -0.47271723 1.542852 -0.3742033 0.24210605 0.1326447 -0.11203106 -0.8904675 -0.6914856 -1.9550457 0.7160066 1.377574 -0.6639601 0.4976308 1.3978661 1.0982482 0.32488883 -0.36106434 -0.32817987 0.35740477 0.90208334 1.2204225 -0.6080141 -3.0453534 0.5958003 -1.0917152 -0.77652097
6 -0.5421061 -0.004871049 -0.17714773 -0.64878696 -1.5620689 -1.2180825 -0.6656551 -1.5534314 1.488795 -0.37768823 0.32347876 0.792608 0.48462865 1.1991347 1.0863937 -0.9505237 -1.7223966 -0.12455133 0.49783012 1.4747084 -0.4676926 0.8803235 -1.7284727 -0.10671639 -0.57720214 -2.3096411 0.9059245 1.1072809 -0.32645965 -0.7385666 -0.20624387 0.78160137 -1.2682177 1.2467 -0.8284395 -0.4333339 0.072346315 -0.020987451 1.1356232 0.65335625 0.6785637 0.1658935 0.4103366 -0.77748096 -1.2650017 1.219206 -0.7082726 0.35694653 -0.28823805 -1.6583935 0.23157722 -2.2779484 0.6314213 0.14276555 0.7169659 1.0529091 -1.7280548 -0.6538967 -0.06702653 2.8521814 0.4035841 0.24585408 0.74372375 1.0879195
7 0.21326919 -0.8094553 -1.2318242 -1.7616597 -0.15172035 0.716018 0.6124734 0.8713543 0.19510634 2.4144466 0.00872169 0.09703273 0.64261365 -0.43238148 0.66822594 0.02684196 1.9790819 1.1945463 -0.27176955 0.19383724 1.875443 -0.3553233 -1.280603 -0.78559315 0.03031082 -0.69027627 1.1819009 0.6446368 0.41682282 -2.5962667 0.5517104 0.32653022 -0.6620772 -1.1056254 0.4291938 -0.5052271 0.8517902 -0.39752337 -0.40758783 0.17655125 -0.26457444 -0.4585048 -0.13639754 -0.105235554 0.77690613 2.07008 -0.5672345 0.8791458 0.48889107 -0.7447363 -2.0317636 -1.0080268 1.3906459 0.46042538 0.2501998 -1.835671 -0.4016404 -1.0308774 2.2229917 -0.1302688 0.39075243 -0.4485407 0.44218588 -1.4435081
8 -0.6151299 -0.63133603 -1.9717163 0.98962146 -1.3072603 0.34569335 1.1114212 -0.6546262 -0.07710482 1.3541278 -2.0719705 1.4765693 -0.9668959 -0.97674114 -1.9586836 0.75995195 0.031669278 0.52017385 -0.6392315 -0.49973455 0.06283494 0.09330034 -0.32455307 -0.5384625 0.87814474 0.9033565 2.421777 -1.5562818 -0.7532644 -1.4514699 -0.12502782 -0.4888804 -1.8953565 1.5927389 0.3690094 -0.9084535 -0.96033204 -0.9958148 -0.10425549 -0.3810282 1.3515493 0.04747442 0.6610987 -0.5112996 0.11053504 -0.5051767 1.2495368 -0.046933543 -0.83373225 -0.6311799 -0.80534005 -0.82447207 0.4945043 -1.486793 2.0572493 0.54770726 -0.80843866 0.20798543 -2.1512911 -1.6393576 -1.0170888 0.17916143 1.2710091 -1.4406898
9 -0.67296565 -0.006661862 0.20936051 -1.7461851 0.92098624 -0.792383 -0.8327927 -0.9287037 1.3922628 0.5293367 1.919486 -1.6595528 0.06530307 -0.1698371 0.006998775 -0.21776335 2.5879004 0.034043938 0.8510927 -1.5880965 0.19252609 -0.4399208 0.91582656 1.3495058 -0.8046684 -0.5655284 -1.3974319 -0.12283216 0.543224 0.8521916 0.82287204 -0.15737635 0.19496511 0.44865128 2.5615668 1.3527886 1.1872935 0.27919167 -2.3722203 -0.35781366 -0.28173384 -1.1128157 -0.4659127 1.1995008 0.8467848 -0.56670797 -1.5506469 1.5027494 -0.06013418 -0.7716115 -0.9887072 0.17951837 -0.55557996 1.6574385 0.41325688 0.784799 -0.5663539 -0.5067324 -0.6481824 1.5297573 1.1388133 -0.41386363 -0.65421814 -1.9469235
10 0.08321623 1.1775299 -0.92006874 0.9108452 0.9644736 1.2425078 0.65619564 -0.5587306 -0.5471045 -1.0586895 0.78741264 -0.17542647 0.80995053 0.101513974 0.829616 0.23867825 2.0125957 0.5983097 -1.1814474 0.885668 0.15822671 -0.34540597 0.14765196 -1.6067553 -0.4795513 -0.46514156 -0.11482695 1.2479705 0.26019415 -1.2206874 0.87233776 0.809931 0.5442171 0.30485654 -1.1675906 1.4656186 0.8096023 0.9867263 1.1852527 -2.005222 1.3847449 1.4190928 -1.6675081 0.19138587 -1.4388688 -0.5890754 1.0824153 -0.48684296 2.093725 0.63814974 -1.7834145 -0.39390177 -0.6759168 1.5220468 0.64699644 -1.6443712 0.77081096 -0.85231316 -1.4045155 -0.037947662 2.0726097 0.41058102 1.1449603 -0.79514295
11 -0.36130142 0.10444617 -1.4317825 0.5581904 -0.30905122 0.54160124 -0.6374574 0.6897579 -0.39384082 -1.3463942 0.036941677 1.9145608 0.821399 -1.493293 -0.3561896 -0.18496585 1.0059218 0.026288396 -0.08489457 -1.9691049 1.5610689 -1.2528036 0.029360821 -0.27401188 -0.94054747 -0.5130769 0.113818176 0.30665383 0.32762226 0.77199966 0.5025446 1.4926009 0.26950982 0.95318145 -0.668174 -0.3074297 0.07999242 -0.18286331 0.2835982 1.2974645 -2.1386645 1.4764245 -0.38239852 -0.6999727 -0.8895244 2.2757812 -0.47652325 1.3372118 -0.31646794 -0.118386865 2.108897 -0.0026882892 0.09021734 0.029403374 -1.4185667 1.0259355 0.08999351 -0.1443774 0.24443991 -0.008156607 -0.031526327 0.6310037 1.1557155 0.5440334
12 -1.4022413 0.08258921 0.083434954 -0.22514077 0.28250062 0.07012382 0.6579199 2.7037344 0.16686982 -0.26706606 0.36056253 1.3997121 -0.081980534 1.451912 2.0925288 0.5472419 -0.5110461 -1.2907137 -0.84857684 0.37880135 0.71732414 0.4433905 -0.8082595 0.76181716 0.013551317 -0.14089644 0.8920432 0.1011714 0.5976788 0.20778853 -0.4247739 -0.4714533 0.15534993 1.0603415 2.4851766 1.8346575 -0.30238214 -0.43701416 0.82778734 -3.1236308 0.5941624 -0.63078123 -1.5074357 0.5557849 -1.3525277 -0.43127245 0.2795472 1.4793997 -1.1183771 0.3182017 0.5387488 1.6339178 -0.22527358 -0.3517951 0.32748607 -0.9348121 -1.3691283 0.05736243 -0.8790018 0.23662214 -0.8392347 0.21466652 -0.71237683 -0.4457931
13 -0.31669965 -0.482059 -0.25963965 0.98440933 1.8400798 0.2218628 0.8330518 0.74206495 0.5424136 -1.3555831 -0.20446964 1.8289558 -1.1182564 0.2498478 -0.26191163 1.1954739 0.789814 -1.1796399 0.41462773 -0.8961622 -1.2673316 1.1225771 -0.61898905 -1.5144433 1.9591628 -0.76260334 -0.19662836 -0.28456795 -0.26715577 0.6179455 0.18933475 0.4894297 0.98792696 1.9342936 -0.95797026 -0.29132444 -1.605739 -0.5269944 2.0480425 0.38958493 2.2159507 0.9069693 0.87642634 -1.416756 -1.7966461 0.81490344 -1.0952926 0.77246606 -0.3979724 -0.44477502 0.055897824 -0.55235285 1.3779117 0.7966414 1.5385226 0.20043829 1.0802838 -0.5317599 0.43428218 1.323314 -0.027030602 -1.5992618 0.20862763 -0.54962647
14 0.8374339 1.4120561 0.76659703 0.087870166 0.06729505 -0.6429179 -0.6030257 0.9118042 -0.16641591 1.064794 -1.7410965 -1.2329867 0.9018012 0.85532635 1.0754807 -0.40782556 -0.9834463 -0.2980733 0.5080632 0.9397697 -0.028077926 0.096643716 -0.10488456 -0.14980401 0.30128986 -0.54221785 0.5032287 -0.49043795 0.3083559 0.42438123 -0.3384549 0.07943116 0.40493783 0.6567678 -0.8053955 1.2523962 0.6858661 0.18590489 0.033839054 -1.6250352 0.043522045 -0.16488363 0.80636084 0.86419046 0.30668166 -0.40152955 -0.076734364 -0.14508894 -0.068421096 0.23283528 0.01647485 1.6637603 0.24506195 -1.3786433 -0.34609783 1.335273 1.2623689 0.74866974 0.15075167 -0.92773044 -0.6425382 -0.92879975 -1.6111344 -0.8553216
15 1.8639616 0.65025526 -1.5962495 -0.14703579 -1.8166986 1.0220385 0.48104575 0.035804976 -1.1012565 -1.293237 -0.3212481 -0.75997835 -0.20123693 1.991643 -1.5030227 -0.19816671 0.8514897 -1.3202369 -0.9963438 -0.8862697 0.15952869 -1.7634835 0.7993581 -0.26399344 1.2197354 -1.4561969 0.4090538 0.2478949 -0.7213043 -2.4329965 -0.29556754 -0.05971404 -0.8488759 -0.61640185 0.5907519 -0.9759995 0.25903934 -0.3152221 0.39478153 -0.63738096 0.5429423 -1.7861385 -0.2552736 0.007593467 -1.3447058 1.5347093 0.7004356 0.5187169 0.84985536 1.5288074 0.49381033 0.37670258 -0.6237678 0.56763726 -0.2553057 -0.40468973 0.1817144 0.67929596 -1.3989294 0.45450008 2.0660043 1.0684255 1.1415514 0.8417058
16 1.4123842 0.16911632 1.0474894 -0.05625078 1.680302 -2.0040755 -2.350235 -1.3823813 0.47203138 0.70940095 -1.4950117 -1.899174 0.95886743 -1.5550522 0.45573676 -0.14761297 -0.07672708 0.68295985 -0.37751478 1.4552063 -0.4632356 0.29838184 -2.9250886 -0.5228439 -1.7340735 0.6214223 0.34445974 0.36941978 0.054879013 -0.010087944 -0.6812574 -0.31745484 0.51017725 0.5192364 -0.75018775 0.6334591 0.13560988 1.2998952 -1.2903187 -0.2322105 -0.75210714 0.5257989 0.6394159 0.3757267 0.32782248 -0.066461146 1.1927718 -0.8892052 1.2059767 -0.23135811 0.14894839 -0.7176293 0.35316142 -0.11034322 0.36302695 1.131492 -0.48837388 -0.18077052 -0.68244994 0.3719735 -0.1258942 -0.86636275 -0.78449833 1.2306944
17 0.8195627 0.9901072 2.7596257 -2.098869 0.32516474 -0.93896246 -1.8355212 0.89238465 -0.43209007 0.7912626 0.20655787 1.4821953 -0.937114 0.88113666 0.5278738 -1.3681275 -0.6244089 -0.94763845 0.50013995 1.4395758 -0.051100332 0.41917753 0.8820253 -0.3241641 0.8799507 0.66817474 -0.99719906 -0.45886457 1.0592052 -0.258333 1.1046736 0.5666991 0.14936051 0.6434975 -1.4093754 -0.21726538 -0.3866292 0.27869153 1.5294671 -0.416277 1.0572177 2.6226807 1.2341756 -0.46447825 -1.0985259 -1.1418443 -1.049486 -0.701621 -0.5278827 -0.51440525 -0.31254247 1.2659271 1.545012 -0.5584307 -1.3633796 -1.9769952 -0.10574867 -0.63582534 2.1818664 -0.64517844 -0.966321 -0.59636796 -0.4822605 0.4065131
18 -0.49582025 -0.7198734 0.6866865 -0.037295185 1.2470181 -0.0966374 -0.25128546 0.37480447 0.80509144 -0.12947658 -0.46836856 0.25247395 0.8235278 0.6938368 0.79615337 1.2603436 -0.14642258 1.2050838 0.56976676 -0.22881056 0.9167822 -0.39828777 -0.82318103 -0.108840615 -0.57628936 0.65647006 0.14187281 0.25852144 0.2715995 1.2198716 0.5095772 -1.346534 -0.5949997 -0.78911 0.14413345 -1.1889081 1.0492399 -1.3692788 0.8213015 -0.0771995 -1.052817 0.5802169 0.4131549 1.4417347 0.48905677 1.5246556 0.1240633 -0.44646832 -0.6028858 -0.89919275 0.34396097 -0.39825937 -0.8765059 0.4206942 1.109604 -0.17772223 -0.5913317 -1.0006177 1.3739265 0.2946767 -0.2845237 1.3555862 -0.32951617 -0.88975513
19 -1.3074965 0.10931948 -1.3494941 1.1976347 0.06675832 1.2133265 -0.19774306 -0.86321783 -0.07985857 0.5682971 -1.1623164 -2.0035813 -0.81399137 0.29362583 -0.8318152 3.0582988 -1.298652 -0.48135567 0.7970307 0.3964592 0.4142946 1.1233037 0.47025603 -0.42684692 0.16536963 -0.3910811 -1.3194482 -2.9136198 -0.6191975 -0.7090804 0.55614495 -1.2716885 -0.8959224 1.8677335 1.2332664 -0.380387 -1.6438409 0.61328256 -0.30596945 1.1358987 -0.51471275 0.5995357 -0.65829194 -1.2112921 -1.2069318 2.0122733 0.5433583 0.8672327 -1.7029516 -0.62454987 1.6865654 -1.1778902 -0.7933842 -0.879811 0.5508344 0.7606038 0.18695047 0.42993343 -1.3079411 -2.507047 -0.8067747 -0.4838085 1.5922198 -0.25377783
20 0.5592646 1.5886235 -1.0729097 0.20049275 -0.1580677 -1.318758 1.6646957 -1.4916338 -0.10660251 1.8060653 -0.318755 -0.64903826 -0.03818533 0.3848218 0.3207674 0.29780853 -0.08857922 0.49854547 -0.27402323 0.19744611 0.0030391589 -0.08942825 0.9328291 -0.322309 -0.71756536 0.0054875473 -0.11286424 0.5599199 1.248444 0.45826387 -0.26040044 -0.23873119 0.08609976 1.0772929 2.4288597 0.8875909 0.4432697 0.31891203 -0.45925525 -1.0028638 -0.11710174 -0.1411801 1.0114408 -0.07487741 -0.86174953 -1.120021 1.1536623 -0.53063864 -0.25873232 -0.03553943 -0.4786143 0.19588763 1.2133635 1.2010008 -0.05543926 -0.014374386 0.16741076 -1.1455454 1.4767808 -2.2665358 -0.3960879 0.6895822 0.36462018 0.016383626
21 -0.12208485 -0.563014 0.73346615 0.6528036 0.18058027 -0.57912666 -1.0279473 0.9394193 -0.097671844 1.3876743 -1.0959948 0.34092924 2.361047 -0.22931473 1.7493035 3.5104954 0.4689142 -0.011374495 -0.046849545 1.1037524 -0.716687 0.43940502 -0.7850686 1.166614 0.39290377 -1.4331915 -0.14989114 0.65401304 1.0724009 -0.79897654 -0.21592729 0.9258871 1.2107596 -2.7089393 0.35229623 0.14718434 -1.4037025 -1.1649622 0.8905087 -1.9501816 0.49861234 0.36586016 0.75154537 -1.1347287 -0.34129053 1.2803005 -0.31507406 -0.23893836 -1.2237244 -1.3885221 0.16257998 0.31000635 0.36814207 -2.0589411 0.0830509 -1.7448015 -0.18057811 1.2216861 0.8302813 -0.34123975 -1.1742022 -1.067314 -0.4575687 -0.105516896
22 1.6208811 0.4484519 -0.3906357 -1.6335061 -1.392363 0.47215182 -0.40577704 -1.2886006 -0.14873892 -0.22132936 1.0623897 -0.9266574 -0.6872965 -1.0212238 0.32803354 1.7941775 0.72638965 -0.8010295 -0.3811079 -0.42233345 -2.01229 -0.48504114 1.2956612 -0.7528447 -1.2459131 -0.6097431 -2.2571952 -1.3992667 -1.3302472 -0.013672325 -2.0391479 -0.8937233 0.22224712 0.5386151 -1.2227123 -0.76935834 0.37532574 1.1608981 0.27043876 0.36628667 1.5360525 0.6616484 1.3162459 0.21173294 0.42920533 0.42257133 0.7670179 -0.7930273 1.3468944 1.5982208 -0.44311404 -0.116615094 0.25379866 -0.82984114 0.7969879 -0.4873841 -0.9718686 -0.09111878 0.656999 0.17977458 0.2984474 -1.6186478 -0.65757376 0.0140623795
23 -1.2110317 0.29358375 -0.5567154 -0.8518904 -0.11068033 0.37116745 -1.0697315 -0.513383 0.44038484 -0.8449387 0.61280376 1.1896118 -0.2643589 0.80268943 -0.0001199528 1.224834 1.0743177 0.29901543 0.31556267 -0.3851766 0.3913908 -1.305527 0.8586565 -1.2008103 -1.3470355 -1.1341335 -1.367431 -0.55493385 -1.5297332 0.7092292 -2.3997808 0.982506 -1.3987484 0.93381786 0.13625479 -0.637923 0.2685707 0.28115335 0.3558379 0.6681264 -1.3278084 0.90148926 -0.6834315 1.1932243 0.89178115 1.1096909 0.5969612 -0.58328897 0.010226466 -0.81334686 0.2831572 -0.5166707 0.77446026 -1.0930699 -0.0863489 -0.4910516 -0.90588295 -1.3176024 0.15844144 -0.9419949 -0.57265717 -0.5973616 0.4836846 0.84322006
24 0.45752636 -0.645016 -0.58789164 1.5319273 -1.4604107 1.1491078 -0.43438047 -1.6802818 0.37473264 0.58930016 0.5427388 2.4638066 -0.93101954 -1.4358445 0.7004606 -0.5453572 -2.832308 -0.1620965 -0.76377815 -0.7013877 -0.645901 0.5061307 -0.65914744 -0.4892623 0.98912114 0.31284198 -1.2353978 1.8989944 0.19734274 -0.75922877 -1.2125674 0.46021384 0.46440047 -0.50019324 1.4899276 0.9941147 0.837408 -0.017202476 -0.07056549 0.20665917 -1.4473803 -1.1141876 1.0258247 1.0570506 0.6781649 -0.28765678 -0.9332852 -0.50781435 -0.013129581 -0.35155043 1.09987 0.40916806 -0.26057306 -0.6517297 1.2030332 -0.14784259 -0.33218515 -0.61747617 0.0066638268 2.0440025 0.38031307 0.010267336 -0.47820982 0.24169362
25 0.3657736 -0.6723432 0.72134525 -0.46718174 2.044782 2.7037554 -1.6159455 0.33731094 0.24437997 0.061126746 -1.3905283 1.2789876 -0.46190557 -1.8910149 -1.3008645 0.6488144 0.42877737 -0.06222317 0.22131617 -0.96159405 2.0418427 0.042718012 0.34693986 -0.2669758 0.4092704 0.7099069 0.3242954 0.28696108 -2.2710862 0.77987546 1.1074134 0.502403 1.1102074 1.40576 -0.17999327 0.54143554 2.0404363 -0.42417163 1.2145398 -0.5300882 1.0159479 -0.07290457 1.1496783 0.0671095 0.50153387 -1.4711086 1.8319795 -1.133472 -1.7864429 0.22008741 0.49740654 0.72322935 0.8420356 -1.6737548 -1.1507243 0.57822084 0.54856557 -0.18485622 0.01781156 -2.1489477 1.0546458 0.30855244 -0.5474385 -1.7823945
26 0.37129483 1.4425807 -1.049022 0.5813512 2.0032597 2.1993737 0.8365656 0.56123656 -0.46276692 0.46831638 1.9421532 -0.1993138 0.8108741 -1.2867669 0.59205586 -0.4274653 0.37374863 -0.02803754 0.025651054 -0.32080033 0.1356234 -0.16782571 -2.0973756 -1.156259 0.1579439 0.9701394 -0.8061737 0.40695193 -0.72161275 0.27631077 0.06420658 2.0031636 -2.4696028 -0.21671641 0.5585208 0.69180214 -0.9841691 -0.48386306 -0.6944514 0.13513125 -1.3587135 0.22757347 -0.2272305 0.70563805 1.2775044 -0.008881716 0.86455584 -0.59407437 -1.2469658 -1.3534374 -0.22862546 -0.08596026 0.47332144 -0.41374883 -0.27680507 -0.38431773 -0.29023746 1.858394 0.17910126 -0.7188918 0.70988244 1.423048 0.82968855 0.074224725
27 0.02032401 -0.29869762 0.5341188 -0.2531167 1.0437119 -1.4209617 -0.7780817 -0.20106564 -0.26922515 -0.6369684 0.5973435 -1.761657 0.1192109 0.9446738 -1.469379 0.74462837 -0.040929273 -0.61022085 0.22171332 -0.19508252 -0.026856856 -0.13198513 0.98653066 -1.212553 0.057286073 -1.502831 -1.1920831 0.56491184 1.0487922 -0.27614897 -1.1004008 -1.7149901 -1.366501 0.6248797 0.011035434 -1.2836207 -1.5792608 -0.06627306 -0.43178344 1.2431669 -1.2234802 0.41472945 -0.50762045 0.80269235 -7.674947e-05 0.31522512 -1.4324902 1.2106899 -0.45103347 -0.22452784 -0.7326798 -0.15339339 -0.2325094 0.89010745 -1.3112359 1.8694135 -0.5197217 0.6567959 -0.44434705 -0.9704052 -0.7444179 -0.21230027 -2.3799202 -1.2315226
28 -1.8189256 -1.5512936 -1.2440791 -0.52314305 1.5476911 0.22724079 1.4921533 0.3071411 -1.2711235 0.5974587 -0.51686114 0.2871027 -0.47082958 0.7821487 -0.30443794 -0.11406979 -1.4242549 0.75124073 0.54996824 -0.37087902 -0.99808663 -0.09324382 0.93659884 -0.081319936 -0.03181526 -1.2203697 0.5313752 0.02720044 0.5157968 1.0688876 0.6835643 -0.5500645 -0.97005767 -0.4479447 1.3697666 -0.3411253 -0.35758486 -0.7663186 0.3390805 -0.47469115 1.1543717 -1.1402686 0.6449932 1.1747985 1.7527204 -0.0014045546 0.5176484 0.37647268 0.3994546 0.48916274 0.26666826 1.0033909 -0.26989377 1.4659722 1.4569235 -0.1806278 0.112281814 0.2879415 0.23780386 -0.24629794 -1.3142319 -1.1120267 2.4893646 -0.99370915
29 -0.18295951 0.38608548 0.9016281 0.17763123 -0.4052758 -0.69754887 -0.10126249 1.4519997 0.5993994 0.30558065 2.0736182 0.8770945 0.7429345 0.7144076 -0.3566279 -1.4020393 -1.7663606 0.8348784 -0.41602847 -0.010109788 0.21431172 -0.10355667 0.20726931 1.1324031 0.303475 -0.3172179 0.68549293 -0.11225942 0.36700678 -0.57864183 0.70634574 -0.14806485 -0.89741725 -0.10960152 -2.5057364 0.42001367 0.18096332 1.2337419 0.21846251 0.373532 -0.019355247 -0.6789707 0.59295446 1.0028967 -0.5928777 0.6675407 0.19160825 3.7083278 1.2287713 -0.7570286 1.4462608 -0.6635661 1.2910824 0.3891292 0.061662823 -0.18184008 0.9868623 -0.3793583 0.2380802 -0.7590541 -0.6036038 0.51707876 0.20553437 0.39458928
30 -0.42267385 -0.79958093 -0.4915536 -0.90838414 -0.31011558 1.9500169 -1.1802928 0.83570886 -1.0455059 -0.07536229 -0.09558048 0.46521103 -0.04208462 0.33704957 -0.15842411 0.0879244 -0.58133996 -0.5497939 0.16032566 1.2676584 1.191711 -0.049322855 -1.6595048 0.4940792 -1.1740586 -2.5270333 1.2082591 -0.7047331 0.03611001 0.38036877 2.2286794 -0.762413 0.69070345 -1.0515348 -0.06955811 -0.35254747 -0.30387616 -0.37134728 -0.14456983 0.054337736 -1.557775 2.1845026 -0.9122974 -1.1385506 -1.4241418 -0.12773666 -2.2582705 -1.2058495 -1.3165609 1.2835855 0.19592257 -1.5688524 0.33381122 -0.15939137 0.494978 -1.3688986 1.2224162 -0.1363902 -0.7657998 -1.2471703 -1.1918404 0.4189963 -0.9758251 -0.619257
31 -0.013528216 0.25718462 -0.061309956 -0.9570409 0.6981752 0.2500647 0.06121999 -0.5797634 -2.199092 0.7151277 1.3045232 1.4944104 2.884743 0.44263342 1.0055304 0.4682525 1.5296452 -0.9816916 -2.1091247 0.168585 0.39788082 0.5356927 0.6288034 -0.26597074 -1.1055187 -1.2301097 -0.09246496 -1.2009687 -1.4831055 -1.948654 0.21136443 0.116074815 -0.87803245 -1.0982169 -0.5565012 -0.094366774 0.4548611 0.28751963 -0.045966037 0.55794406 0.2320463 -1.2307464 -0.07572725 1.5890982 0.5266838 0.30824387 -1.200191 -0.27102584 0.53798884 1.3626517 -0.34996602 -2.3810341 -0.06559862 0.076961674 -0.15997837 -0.474901 0.6514091 1.4035672 1.1251266 -1.1896617 0.43365753 -1.4790382 1.5669867 -0.00017614692
32 -0.15327072 -1.258657 -0.47988987 -0.76725847 -1.2210308 0.9130412 -0.49292752 -0.9288487 1.1103194 0.28651932 0.13316748 0.03735243 -1.795643 -0.63651305 -0.24636188 -0.36498848 1.4319193 1.732661 -0.34521258 -0.0700809 -0.019850845 0.42240652 1.5722002 -0.2637275 0.9017332 0.64846015 -0.48055917 2.3461514 -1.5671964 -0.9755549 0.8538491 0.35189584 0.5286314 0.14617273 -1.4551791 -0.73584086 -1.429544 0.97562873 2.1918986 0.8911184 -0.16538814 -0.34046617 0.2479802 -1.8384008 -1.7107959 -1.710784 -1.4961426 0.67462987 1.1510155 -0.08162968 0.86786604 1.0628831 -1.9077567 0.44689816 -0.12095935 1.0417387 -1.895662 1.6795019 -2.715691 0.3638459 0.42717668 -0.055902373 0.38432494 1.0427772
33 -0.8315277 -0.5804884 -0.5069084 -1.3523043 -0.7991213 -1.9410539 0.5942195 -0.79049647 1.6450448 -0.28095898 -0.27908707 -0.5510296 0.5717865 -0.35756803 1.3251534 -0.22548167 -0.4004851 1.2897623 0.39118782 0.84990966 0.6898796 0.09832973 0.33894333 0.92453015 -0.39609584 -1.6672195 -1.827892 1.552398 -0.5326404 1.253021 -0.6070471 -1.8082935 -0.87710243 -1.1429 -1.0558302 0.20575699 1.7215089 -0.24016553 0.1795254 -0.26745102 -1.176244 0.18135476 -0.072971255 1.1714275 0.04244765 -1.0160532 0.20707895 0.06573135 0.32980767 -1.2012931 -0.47547075 -1.8635641 0.48889968 0.68964064 0.24797708 0.9417285 -0.7551485 1.1468366 -1.5496992 0.8213383 0.9355335 -0.40775505 0.5761951 0.17909342
34 0.10151035 -0.2832877 0.15666974 -0.28689083 -0.45819533 0.066094205 0.73073643 1.0981584 2.2084475 -0.5198514 -1.4287903 -0.25593498 -0.92402625 0.38769963 0.0909569 -0.53011656 0.5450536 -1.1673876 -2.324955 1.429104 -1.6400447 1.0712956 0.8437887 1.3032113 0.67117715 0.10446005 -0.00054239715 -0.5231903 -1.649093 2.2644098 1.3170049 -0.50401855 0.52816176 0.59425026 -1.7515262 1.6499614 -0.69133586 0.8323408 0.26582965 -0.6054112 -0.41661656 2.1158092 1.6871783 -2.2687583 0.14420293 0.43283468 -0.47353673 2.0408754 1.0896406 0.5599409 0.32913998 0.57013834 0.15538605 -0.75723594 -0.20685099 0.34345984 1.048715 0.87796915 0.6636744 -0.31193316 -1.2220802 -0.9191788 -0.8574278 -0.23525207
35 -1.0619335 2.1058536 -0.88480896 -0.9350438 0.22850972 1.4220368 1.2281221 1.1699336 -1.7857463 -0.19390078 0.68959814 -0.050974395 0.6994966 0.3798137 -0.096687764 -0.11575965 1.1195897 0.17562988 -0.20434345 -1.3974535 -0.6684841 -0.2532873 -0.76457566 0.5614681 0.68067163 -0.6436627 -0.082283154 0.63454044 0.4158175 0.106114574 1.4628294 0.9277883 0.14697975 -0.40455925 -1.4959384 -2.3362477 1.772819 0.82337934 -0.8984149 0.49969012 0.94733673 1.3758202 0.40532163 0.14148416 -0.30859047 -0.85371673 -1.6395668 0.2239253 0.7302572 0.08806374 -0.9140066 1.2106179 0.92369217 -0.15681578 -0.14046127 0.5805832 0.7719634 -0.20974912 -1.8086095 0.6311493 1.4911822 -0.64293134 0.25020432 -0.7618558
36 -0.36574602 0.64599705 -0.033563737 -0.31583628 1.0385598 0.679961 -0.26687664 0.46388975 0.7655239 1.491521 -0.08196106 0.7391857 -1.4917608 -0.3708697 -0.8858351 -0.25228938 2.3711681 -0.07951484 -0.67201865 0.043657202 0.14281516 1.0616797 0.8540729 0.36605513 -0.09671058 0.004094477 1.7010266 -1.1187761 2.380621 0.8090814 2.0889452 0.5413156 -0.7254343 -0.3416432 -0.61070716 -1.3799815 -0.11601222 0.33734852 1.2156334 -0.3297653 0.14242293 0.97164017 -1.3768213 1.5307896 -0.24206392 0.9976817 0.3781077 -0.1455623 -0.6070422 -0.53309 -1.1110102 -0.09928908 0.18378633 -0.9269685 0.29314998 -0.17492497 -1.8345512 0.36820138 0.91972154 -1.2526561 -1.029593 -1.0792232 -1.9438573 1.2032031
37 0.39285538 -0.14521728 -1.4047737 -0.9202054 -0.44982076 0.19759257 -1.2715054 -0.30829072 -0.17940253 0.09650207 1.1488007 -0.34475413 0.5547618 0.5597154 0.6274262 -1.0094573 -0.79148376 -0.115375005 -1.3139079 1.5927551 -0.6692734 -0.71515733 -0.09703259 0.7533112 0.79133755 1.9786162 -0.652099 -0.117336914 0.44799516 -0.6673009 0.54791903 0.1764316 -0.72393644 -0.2634271 -2.6545084 -0.07854364 -0.6177746 1.3213218 -1.9463356 0.05774576 -0.50671023 0.10818877 -0.03877246 2.0708396 -0.6863317 -0.57265913 -0.2335216 -0.7048581 -1.3370241 -0.4326125 0.9310481 -0.28078878 0.6356679 -0.0150817 -0.37643585 -1.7197306 -1.3004326 0.5928446 0.78679895 0.49869755 1.1594946 0.7832712 -0.9964837 0.109951444
38 -0.21452713 -0.443048 -0.6521493 -0.6377323 1.300685 -0.50244373 -0.004172251 -0.017249405 0.7455404 0.46892568 -0.7367844 1.2006977 -0.32165742 2.72917 1.039457 1.0986928 -0.83124393 0.37388882 0.5011445 -0.054945286 -0.5697739 -0.62220794 0.207418 -0.27352342 -1.4461803 1.7720915 -0.24738958 -0.18930101 -0.064458914 1.2084646 -0.3035694 -0.72455424 -1.5496151 0.11834391 -1.059888 -0.41615215 -0.5022196 0.007860429 -1.2424924 -1.2979132 2.0866754 -0.120045714 0.06251796 -1.7298669 -0.9667378 1.914496 0.9209046 1.3225404 0.9748866 1.3023577 -0.5774741 -0.037029088 -1.3265932 -0.50673425 -0.770863 0.40306348 -0.50039834 -1.9935894 -1.1687993 0.7285464 -0.41362932 -1.248611 -0.39189982 0.74247736
39 -1.2598283 0.2333169 1.5541842 -0.2930579 -0.11920365 0.035151787 0.53319657 0.57173836 0.13398628 1.2112223 0.34065753 -1.4608961 0.1772824 0.44667453 1.1662444 -1.8613911 0.22282319 -0.5828091 -0.6932778 0.1494926 2.9352653 -1.538994 1.1305177 -0.12404589 1.7298907 1.0186026 0.30185643 0.45255697 2.1526237 -0.09405154 -0.71403354 -0.31501853 -0.70000535 0.6253024 -0.33098307 0.96743655 1.6103008 1.0795423 -0.14094464 2.073287 -1.0324324 0.5006539 -0.13431136 0.62324536 -1.9389824 -1.1169277 -0.65492684 0.07318284 0.58762664 -1.4428114 0.80770457 -0.5626767 1.2520721 -1.3184824 -0.7638133 -1.1130333 -0.37434748 -0.7438687 -2.4439607 -0.118049465 1.19459 -0.567713 0.10633375 0.3951431
40 0.19745384 -1.1682009 -2.8849397 1.433808 0.6584436 0.032233275 0.48849 1.97419 1.023735 -0.43629122 -0.014599044 -0.65746474 0.31075826 0.1813363 -0.8202081 0.780836 0.54549706 -1.3461713 0.005787656 0.9441033 0.409992 -0.067333534 1.545694 -1.0159984 0.6804865 -0.2506084 0.4287805 1.2349988 1.839907 -0.15935533 -0.08939247 0.37365803 -0.110929705 -1.2312136 0.73968923 -0.9713697 -0.8581406 0.026224561 0.13967977 -0.38127425 1.1998367 0.045784183 1.602411 0.6850409 -0.55119544 1.2430604 0.39263642 -1.909529 -1.1543674 0.29265395 -0.22013809 0.18732822 -1.153079 -0.58023655 -0.15336485 0.2591661 -0.319194 -0.56682456 -1.9384714 0.58200264 2.3039517 -0.7751373 1.5205983 1.4294484
41 -0.2304601 -1.0549775 -0.46025106 -1.0316592 0.35549507 3.3584554 0.49625763 0.008734968 -0.7681222 1.5798076 -0.051492754 1.313378 0.6126222 -0.8717453 -1.6655536 0.34874535 -0.8320949 0.67089003 0.26880985 0.24405795 1.2428471 0.51547337 0.4242957 -1.1571814 0.94637835 -0.8910205 -0.63024944 -1.3261979 0.048573647 0.81442285 -0.13278995 0.2678967 -0.069476284 0.51579016 -0.36830425 -1.3521866 -0.28115606 -1.6987445 -1.009033 -0.42778015 -1.6566916 1.3467617 0.76305646 -0.71855754 -0.58507043 -0.56099194 0.32183918 0.5666537 -0.9829467 0.9628221 -0.15359199 0.14779857 -0.82585144 0.16556023 -0.03801337 2.063055 0.5321838 1.487744 0.31995085 -0.1607684 1.302264 -0.63412833 1.1893507 1.8055127
42 0.3599964 0.2112741 0.7062296 -0.7543992 -0.3221419 0.4735148 0.24548084 -0.195669 0.75599515 -0.49498692 -1.5258034 0.81464005 2.3067455 -0.4803403 0.84805787 2.0462053 -0.044759434 -1.747454 0.24169153 -1.7960284 -0.34893984 0.14833826 -0.41259155 0.68839395 -0.005773622 -0.07154348 0.09186842 -0.018659499 -1.1248486 -1.2136331 0.86633456 -0.090803236 -2.3814795 2.637094 0.11713003 1.0891337 0.77765274 -0.54868025 -2.4248838 0.4569647 0.33554742 1.5716678 -0.8435872 -2.3726597 -2.0711641 0.15478155 0.765254 0.5015674 -0.13268402 1.5533862 -0.7111172 0.3311881 -0.77332336 1.5618321 0.517253 -0.9283031 1.196079 -0.4937632 -1.5329651 -0.18804853 -1.5752329 0.11092885 -0.99652463 1.2484001
43 0.2522297 -0.6119176 -0.901197 1.1786994 -0.84135646 -0.9268955 -0.5991244 -0.03893404 -0.5350919 -0.33822912 -1.592135 2.1926267 0.5098648 -0.36656523 1.1006418 0.8713553 -1.7121749 0.2074628 0.65292245 0.0302854 0.9816848 -0.945513 1.2191604 -1.0085217 -1.1061797 -1.5014701 -0.4908298 0.15385717 -0.7807687 0.6274184 -0.035870865 -0.07814991 0.21332939 0.5840475 -0.455872 -0.040434703 0.83722687 0.20949367 -0.6972981 1.6281292 0.7198252 1.238751 -1.0840051 1.521715 -1.4595636 -0.62123746 -0.11701517 0.7750184 -0.05224186 0.29789427 1.2639518 0.72024786 0.7465364 -0.3245747 -1.3328993 -0.8428028 -0.79037887 -0.10431023 -0.31483474 0.7056039 0.19934799 -1.0902357 0.7457119 2.3818796
44 -0.026558584 0.60857815 -0.03182242 -0.8338092 -0.7263877 -0.38881025 0.11452694 -0.0011532572 2.114321 -0.6169882 0.9457535 0.062487576 1.4366292 -0.45314282 -0.5603375 0.48910755 1.1869898 0.098312154 -0.43599114 -2.4649935 -1.918565 -0.63913625 1.7143888 1.3122354 1.1251373 1.5410162 1.965813 0.19324705 0.70962054 0.6504509 0.25677127 1.9396768 -1.3860373 0.013245172 1.4551305 0.6944947 0.074591406 -0.57620895 -1.4365034 0.20767522 0.5130459 0.012968393 -0.5798888 -0.016312145 -0.2480024 1.5871034 0.6886739 0.79799384 0.037902527 0.71771705 1.0247339 1.7002501 2.223374 0.4149935 -0.13363236 -0.40628657 0.3026861 2.0741231 0.37390575 -0.4648084 -0.30128276 1.3542316 1.0992776 -1.9981263
45 2.0227876 0.16419928 -2.0410128 0.24893497 0.25025344 0.41731885 -0.1959833 -1.22972 -0.9706893 -1.081946 -0.9062931 0.07296068 1.2723992 -0.16824946 -0.23272252 1.0323356 0.074546576 -1.4723123 -0.48550233 1.7574662 0.2503728 2.0561926 -0.3248121 -0.58593935 0.83710396 -0.074082404 -0.96398985 0.54975194 -0.06760146 -0.5608582 -1.1822888 -0.22313315 -1.3405025 -1.0927238 0.019169314 0.28453362 -0.15138438 0.67722315 0.8564561 0.88480014 1.2555233 0.2558388 0.45490682 1.9127758 0.6194339 -0.15579605 0.5158875 1.5793526 -0.09828109 -0.7130055 2.360835 -0.40341336 1.323845 1.4392629 -2.1630828 -0.8675608 -0.8336518 -0.48979524 -0.33642697 0.43034434 0.56101793 -0.2459648 0.91728103 0.04994477
46 -0.046357386 0.0015500104 0.51266336 -2.397123 1.1764178 0.95618653 0.4939288 -1.2846831 -0.21324013 -1.7421128 -0.9630075 2.4113095 -0.61933756 -0.8006567 -0.52495974 -0.49099064 0.90973955 1.367501 0.9348019 -0.035283204 1.1202085 -1.6183729 1.2717261 0.80436254 -0.77801126 -1.6588774 1.093921 -0.060473293 -0.7030895 0.48419103 0.8328242 -0.20467445 -0.026240557 -0.008357823 -1.3883868 -1.0672681 -0.5936337 -0.23167358 -0.6849802 -0.25723785 -1.2703148 1.1017513 -1.0204339 -0.60434264 -0.1128495 0.26152074 0.54955846 -0.40002325 1.0490966 -0.031311043 -1.7758509 0.17844605 -0.51347715 -2.5091078 0.13843362 -0.18577555 -1.7583151 0.88102365 -0.5165114 -1.4506125 0.100973435 0.49636364 0.67157793 -0.7956466
47 0.64791405 2.6683972 0.08716744 -0.45148256 1.3009994 0.71941066 -1.2212805 1.1625099 0.8388704 1.3447683 -1.114615 -1.2000686 0.16125876 0.2567654 0.16416262 0.5060811 1.1798787 0.68971944 0.90271795 -0.5920999 -1.091307 -2.2842731 1.0533708 -0.14949784 0.29220477 1.3811159 -0.93895864 2.221499 0.35316992 0.30265474 0.8072543 1.1602806 0.917698 -0.011771704 1.0157537 -0.36201933 0.5333074 0.1947569 -0.8448665 0.09484405 0.7467249 -0.7443034 0.75435704 -0.92876285 1.0094612 -0.57288116 0.49497852 -0.4631391 2.032265 0.29989007 0.21578528 0.73392177 -0.33631262 1.6113337 -1.159417 0.8822753 -1.6844527 0.12268971 -0.45165083 0.30275726 1.112011 -0.81475294 0.7473739 0.6197097
48 -1.3447173 0.8091308 -0.090811804 0.57009804 -1.2608871 0.5216548 -0.5807279 2.2114367 -0.4545934 1.2415783 -0.14201827 0.8724634 0.91986924 -1.4027091 -0.50347495 1.0546701 0.60621226 -0.34076747 -0.70061487 2.0023642 -0.31259453 0.94210726 -1.2545066 0.3292396 -0.590619 0.7449396 0.112180665 -0.83995193 -1.8486983 0.33187175 -0.88728833 0.3735965 -1.5630336 -1.4914017 0.20166738 1.3842171 0.9014137 1.6579157 -0.044324454 -0.77574706 1.5129659 -0.24705635 1.4491286 1.6405222 -0.86641204 -2.3538542 -1.6061649 0.6022609 0.39282516 -1.2049203 -0.88103276 0.22266264 -0.46896374 0.90436536 -0.50726706 1.0278779 -0.40706748 -0.02448786 0.8426427 -0.09787627 0.660376 2.1990104 0.93482655 -0.2276654
49 -0.2905325 -1.1081111 -2.0947964 0.14293177 0.41918913 -1.3711594 -0.7781263 -0.29782027 -0.7079733 2.1221728 0.045848448 1.4839215 -2.0516708 -0.0138390055 -1.019841 0.15130015 1.7606988 0.5399135 -0.20939508 0.94221556 1.4996272 -0.38046136 -0.1261433 0.907329 -0.7735729 -0.15746412 -0.3237725 0.77299064 1.4231368 -0.46479264 -0.6209022 0.560441 0.52016866 -0.2748196 -0.60352683 -1.283652 0.04584633 0.03212396 0.50232095 -1.2568467 0.9858667 -1.3545011 -0.7523586 -1.2014459 0.4440197 -0.75753516 -0.8168593 -0.7287471 1.0480564 0.5732616 -0.1839511 -1.3180022 0.5907175 0.45837143 0.84698474 1.5080168 -0.42087692 -0.7636646 1.6730099 -0.23291709 -0.75038725 2.3231008 -0.59919846 1.2079701
50 1.7912228 0.69130975 -0.1569516 0.5619578 0.43476993 -0.730005 1.3420362 1.229591 1.1390659 -0.1893908 -0.69955194 -1.7059512 1.5529366 0.27185926 -0.7803632 0.8264201 0.61606675 0.42466125 -0.9261717 -0.1076073 1.6440595 -0.21877028 0.53329235 -0.34016317 -0.9321678 0.7717493 -0.19073282 0.4821115 -1.369981 0.9909224 -0.6694716 -0.5921447 -0.055308077 2.2804146 2.3761723 2.0538235 0.4093942 0.62824434 -0.27086172 0.8160777 0.32329312 0.9137707 -0.36566365 -0.08844486 -0.8242626 -0.23718207 0.75662684 -1.1343472 0.5190503 1.1448374 0.55945796 -1.2848016 1.5240164 -0.2660799 0.9858183 1.3071295 -0.0606019 0.55685526 0.040401865 -0.26072046 2.1766148 1.3137715 -0.28033507 -1.5891805
51 -1.6374048 0.9908224 -1.1903688 -1.0978032 0.50101274 -0.944609 2.216134 -0.5705129 0.4734761 0.46080315 0.2703918 0.1281193 1.3752587 0.9802747 0.4619957 -0.5892498 -1.1220082 -0.84960324 1.9127508 -0.4954461 -0.37382114 0.67455727 0.36350235 -0.8804695 -1.0538582 0.561767 0.3618913 1.3683441 0.8013744 -0.93909967 0.17838898 -0.6447296 -0.6501486 -0.02469604 0.7253458 2.6721497 -1.6113437 -0.6064183 0.9053461 -0.2766962 -2.4054434 -1.2055295 -1.0681516 -0.270612 1.7540567 0.3492243 -0.53580964 0.73911136 -0.775579 2.71435 0.9359396 -2.4548347 0.7621715 -0.11645801 0.5749643 0.110659316 -0.35855567 -1.0316913 1.282267 -1.5982339 -0.40509087 0.3009036 -1.0034633 -0.41100726
52 0.61622936 -2.0967693 -0.5260327 -0.0074182525 2.096361 -2.0644374 -1.0331784 0.3655623 0.94994724 0.3224935 -0.01800724 0.54657084 0.84337085 0.14806662 0.19385287 -1.1818544 0.0021838783 0.12230856 -1.0873753 0.16998173 -0.68782705 -0.27891722 0.5705342 1.3414727 0.75823253 -0.87372774 -0.548424 -0.75970083 -2.012647 -0.8308199 1.1364855 -1.0982043 -0.026103644 -0.7238065 -0.47400445 0.37334535 -1.0081097 0.2694024 -0.07904564 -1.3926418 0.2275769 0.45280516 0.67445654 0.65966284 -0.38508168 -0.26818582 -1.3386471 -1.0141805 -0.7605395 -0.40888312 -0.15367177 -1.9387468 0.24835728 -0.012867763 -1.2693744 1.1696895 1.5931677 -1.2642705 -1.1919695 0.4032412 -0.40512744 0.47617078 -0.22040722 0.7988384
53 0.79144275 -1.93924 -0.15553251 0.5954241 -0.38039854 0.75219595 -0.5322492 1.5241717 0.4867025 1.292436 -0.9331519 0.115410835 0.31057078 -0.30130413 -0.4212271 0.5347687 -0.7246225 0.23506436 1.3855639 -0.77685606 0.7685101 0.9081997 0.41496184 0.45828104 -0.4673375 0.2375624 0.08157101 0.66655177 -0.60247105 -0.7939628 0.40394235 0.9950737 1.0945443 0.29750556 -1.5600383 1.2481642 -0.45071635 -0.09299616 1.767835 -0.5037978 -0.47432917 0.91131204 0.41463286 0.02270708 0.2902335 0.46424866 -0.27305132 -0.10704856 0.29212722 -0.5345319 -0.69912815 1.9395514 -0.007150804 1.5080239 1.646115 1.2892468 -0.3067307 -0.74534535 -0.095460616 0.09185322 0.62038654 0.69444513 -0.5065649 -1.3769684
54 0.98742944 -0.6929496 -0.3678129 -0.22764963 -0.2856586 0.29991663 -0.29972416 -0.63829297 -0.18843304 0.9896126 -1.425448 -1.1602068 0.06838629 -0.014031475 -0.7996714 -0.30498964 -0.11300022 1.8924286 -1.0485872 -1.227535 -2.5891712 -0.24347015 0.10547452 2.1237044 1.5648911 -0.12541804 0.55314606 -0.44476473 -0.23812304 0.78928 -0.5569306 0.012289553 -0.606572 0.42840782 0.40620813 -2.58838 -0.79804724 1.2208345 0.5046003 0.8188727 -0.6088523 -0.05034905 1.1386647 -1.6549015 -0.84793574 -0.7747684 1.2657002 -0.35908952 -1.8601598 1.6200807 -0.09622326 0.45653045 -0.59681875 -1.1293011 -0.1873401 -0.22294694 -0.7745679 -1.0292196 0.46027794 0.7627586 -1.7879045 -0.12622713 -0.8609925 0.8128629
55 0.63588226 0.5164385 -1.1968669 0.46019423 1.7681348 1.7482656 -0.02188686 -0.23380353 0.88641435 -0.8348981 -0.15944621 0.22030437 -1.008763 0.19150496 0.101951644 -0.09867063 -0.37366617 2.2534027 -0.6380449 -0.18189271 -1.9465313 0.39186344 -1.8062419 1.1000524 -2.0034044 -0.22791618 -0.68650323 0.025083961 -0.8116723 -0.258399 0.83448726 -0.8793526 0.40878904 -1.5311186 0.21077026 -0.06808555 -1.6276367 -0.110164635 0.7938259 -0.51523983 -0.014278686 1.4788527 0.18934423 -0.16188498 1.0797924 0.31492633 -0.08837707 -0.85590214 0.34138647 1.591085 0.23326962 0.064335994 1.1264668 0.7640894 0.13416632 -0.96190053 -0.9361221 0.77123356 -0.7033652 1.4134202 2.069174 0.27352858 -0.4853402 0.06338825
56 -1.0412039 -0.91854364 0.6857147 -0.40251923 -0.32214788 2.633971 0.13930163 -0.36189294 1.5425731 0.33811888 -0.6846543 0.20135634 -2.058732 -0.35081053 0.38124278 1.156311 2.011417 0.03126116 1.298654 0.49424478 -0.0020636094 0.7419731 -0.5216928 -0.30059636 -0.6890695 -0.5436861 -1.9045987 -0.8917064 0.172466 0.331557 0.99765337 0.4375222 -2.1113238 -0.11161887 -0.6206873 0.49629316 -1.1094894 1.010314 -0.17183411 -0.70883274 0.79103434 -0.79037386 0.94035435 1.2885585 1.5311002 -0.9016952 -0.15390335 1.5837168 -0.107097566 2.3314714 -0.15799208 0.89502496 0.56573296 0.019462228 -0.9054518 0.60326266 -1.5542657 0.29947364 -1.359204 1.1120646 1.2028189 -1.6914573 1.4989814 1.0302267
57 -0.78920406 -0.1226819 0.32383588 0.18410145 -0.41156325 -0.6659056 1.2782174 -0.7052709 -0.5730672 -0.5612143 -0.7797683 -0.13645628 1.7192659 0.0563549 0.27336848 1.5858862 -2.9338107 0.943302 1.3732494 -1.5314386 -1.7503507 -0.10754318 -1.232748 0.9081932 -0.43367442 -0.025268994 -0.45665944 0.16162091 -0.86362076 -1.0300994 -0.35904396 -0.9694405 0.41887888 0.15047011 0.37888417 -0.58750904 -1.5732989 0.6194253 0.8152035 -0.72453785 -2.2919314 -2.3730488 -0.11237309 -0.1300635 0.5405095 -0.38119042 -0.022512287 -0.5289001 -0.12988178 -0.3534028 -1.0985525 0.5765512 -1.6179105 0.728289 0.29199407 0.18131794 -0.9080111 0.037294593 1.5461799 -1.7283262 -0.16064696 -0.13878503 2.365797 -0.5614401
58 1.0500728 1.0537418 -1.7617543 0.13978997 -1.2738845 -0.07988314 -0.18562628 0.15088026 0.38725877 0.45118842 0.90012974 0.28820014 0.1257905 -1.03807 0.8381611 -0.5257271 0.98954755 -0.8659283 1.555275 0.40988037 -0.98028344 -0.7961613 0.7252383 1.0409002 -1.1820742 1.4267668 0.9705235 -0.78285885 -0.75582993 0.579287 -0.13102563 -1.8512844 0.18162589 1.0777836 0.2715375 -0.09177549 -0.391768 0.7496028 0.061024975 -1.3057449 -0.14186235 0.26856595 -1.0611353 -0.97323596 1.1881397 -0.17133802 -0.036720157 -0.26408064 0.2384429 -0.02127511 -0.22512677 0.66542786 -0.06791747 0.80703175 0.24302906 0.09084465 -1.3326006 -0.6984549 0.10455888 -2.0821652 -0.9788727 -1.1523814 2.0160499 2.137764
59 -1.4062243 0.2924952 1.0562371 -0.35070348 -0.55123425 -2.0469272 -0.84638965 0.93143773 -0.46552056 0.62111485 -0.12605548 1.0481431 -0.7657047 -1.8181407 0.4937832 -1.0152005 0.9643608 2.373757 -0.9503992 0.18959056 0.05467289 0.12149838 1.8805704 -0.13791947 -1.9182765 -1.8109909 -0.76562625 -0.7053762 1.7303722 1.5410534 -0.63181937 -0.66841227 -1.6992044 0.5767434 0.048432205 0.08096974 0.89059544 -0.3532057 -0.6461251 1.1839646 0.23071045 0.59930515 2.7655675 -0.56064475 1.8194876 1.3185825 -0.58591074 -0.1230003 0.5516791 -2.8807967 -0.047889877 -0.44434005 -2.0732114 0.7244382 0.93106884 -1.4185559 0.39466134 -0.56068575 -2.8577452 0.5987901 -0.04347352 -0.5338874 0.39738342 -2.4713976
60 1.4025118 0.01173503 -0.5432332 -1.772768 -0.34578893 -0.10673037 -0.55522275 -0.94945353 0.4562725 0.42092344 0.7771895 1.2891397 -1.1266888 0.47842786 0.3424409 0.7753687 1.9837662 0.7905681 -0.8862097 -1.6940249 0.37271303 0.93788993 -0.2999343 0.39124513 -2.3666487 0.36602458 0.46189818 0.38739502 2.3134565 0.37115803 0.010159667 -0.07166853 -1.3829479 -0.88023186 -0.083181344 2.0066788 0.44285774 -2.0051117 -0.46805042 -1.2543256 -0.093010046 1.0842798 -1.9468845 1.2545793 -0.40345958 -1.3726592 1.5285057 -0.9884711 -0.63614154 1.3945287 -2.1135478 -1.2912247 -0.044069823 1.1148274 0.7150561 -0.37434834 -1.2777994 -0.008117365 1.4218454 1.0398955 0.3362366 -0.8244875 1.071831 -0.72383493
61 1.6044402 -0.14725076 0.14684248 -0.77467006 0.75877213 0.3714499 0.74606466 -0.0382153 -1.2345109 -0.31453237 0.3029275 -0.16849904 -0.9722131 -0.32267255 -1.641977 0.5369598 0.14043318 0.202933 -2.230284 0.43892738 -0.16765796 -1.1208632 0.05399817 0.434954 1.8073357 -0.033803303 0.62621677 -1.6249548 -0.0646421 1.1449395 0.3474272 0.13631392 1.2774605 2.244761 0.53723174 0.49597162 -0.5335694 -0.27493885 1.0531534 0.31792998 -3.0494554 -0.25486264 -0.47876397 1.3568406 -1.0130546 -0.2642249 0.14041907 -1.516182 0.25022367 -0.7230407 0.4546538 -0.7793852 -0.22555876 0.87550044 0.17367782 -0.84859174 0.37539312 1.6655849 -0.26278535 -0.5236225 -0.26904407 0.5054777 -0.67864686 -0.20171702
62 0.95070857 -0.7796463 0.62896854 1.5793251 0.24541332 1.1165004 -0.30757752 -1.1167086 0.16775998 0.29762092 -0.7243607 -0.172155 0.20175634 -0.6173817 1.1012688 -0.8178419 -1.0439545 -1.176697 0.25899848 -0.29221556 0.56206214 1.1828384 0.49702832 -0.56556916 1.2231995 0.33434775 -0.8011967 -0.66908836 -1.5234758 -0.54005545 0.70525235 -0.11529186 -1.9349631 -0.74363875 1.5743382 1.1393937 0.24450831 0.51775175 -0.06145117 1.3206674 0.21825358 -0.44479266 0.3321166 0.14874521 -0.7381714 -0.7700343 -1.3001815 -1.0917917 -0.8863133 -0.36335284 -0.18865894 0.56024146 0.68276674 -0.026090307 0.65977377 -2.2494404 0.81400466 -1.1298162 0.09916995 0.40819454 0.8217374 -0.4539798 -0.38555333 -1.0622625
63 -0.59165674 0.766087 0.53277695 0.02908793 -0.39954296 0.96031725 0.60657406 -0.47699934 -1.4470193 1.0559403 -1.1105955 -0.85652554 1.3759971 -0.013066898 0.31670633 2.4723077 -0.4260824 1.02776 -0.7705136 0.95096886 -0.009059619 -2.5928762 1.357888 -0.97303367 0.6640299 1.7695993 1.3634282 -0.6688265 2.4274814 -0.03957742 0.08071737 1.0930591 1.4056633 -0.72632486 -1.8540802 0.41832352 1.993335 2.0292556 2.0709796 -0.13051833 0.6508323 -0.7225965 2.4373488 -0.3247519 0.22212373 0.4563899 -0.5215521 0.4034422 -0.86623394 -0.16615866 -0.078201585 -2.0878808 -2.16378 -0.5338201 -0.96206635 -0.39608878 1.1548147 -0.52403575 1.1569763 1.6099993 -0.2575288 0.3700255 -0.37600577 0.47035822
64 -2.4970894 -0.40210924 -0.059298795 -0.32391164 -0.47760457 -0.3155598 0.4258485 -0.48825076 -1.564958 0.8885142 -0.29446012 -1.5081018 1.1373287 2.7862806 -0.065905586 -1.1386737 0.76410335 -1.1910694 -0.56345034 -0.27717826 -2.2573771 1.3508495 0.6651989 1.5689609 -0.9063137 0.7571218 -1.1411669 -0.7762303 1.3512739 1.204347 -1.3583224 -0.7057361 0.78149545 0.66904896 -2.0433948 0.1619144 -1.8385406 -1.5743423 -0.54490066 0.33281583 1.003695 -0.2742208 -0.52398735 -1.243143 0.73076 -2.3218787 -0.2446983 -0.09680458 -0.38611946 -0.08445567 0.29168355 1.6467024 1.5948956 -0.1856264 0.7748683 0.09645426 0.7178329 2.4617836 1.466885 -1.1022583 0.78874946 -2.2200217 -0.94449776 -0.27833614
65 2.453927 1.0528172 2.6710596 -0.61134636 0.5554181 1.3387754 1.5967785 -0.008944284 0.97447246 -0.647326 -1.0916395 -1.6485337 0.43312082 -0.47112712 0.20947908 -0.24664718 0.25814065 1.6798576 -1.3346528 0.4474519 1.340916 -0.9639911 -1.455414 -0.4430846 -1.4045528 -0.09679735 0.22427632 1.2598877 -0.27737346 -0.53838575 0.33069897 0.2113325 0.3490451 0.11814123 0.9112852 -0.8082211 0.6526179 -0.18855955 0.2626554 0.6769232 -0.6688869 0.6875493 0.44147167 0.3790542 0.4439884 0.089983895 -1.048838 1.619895 -1.0267752 0.109065056 0.9475261 -0.5610782 1.2898945 0.9001448 -0.6660221 -0.67401093 1.2574514 0.16565923 -0.32440817 -1.1243641 -0.19011359 -1.1939863 1.0939925 0.38075793
66 0.8356085 -0.77177703 0.94493634 -0.8906864 -0.38049772 -1.9704612 -1.1772201 -0.9458823 -1.0289611 -0.117954314 0.43412492 -0.0670846 1.148099 1.1751763 -1.0684057 -0.38267758 -0.8359185 1.6951789 -0.27859744 0.39861476 0.014741615 -0.18470432 -0.5607166 -1.0286165 -1.0829712 0.18068744 2.0059955 0.75346327 0.24853711 -0.9712281 1.10402 -0.99631965 1.1616334 0.4417065 -0.5068914 0.61291 0.1482107 -0.35446924 -1.0890919 -0.080984876 -0.85129523 0.41949365 0.9254792 -0.35499373 -0.75944394 -2.4960306 1.6175432 -1.0768859 0.54625255 -0.0069893138 -0.39804038 0.20603597 0.90225697 -1.3354752 0.16767903 -0.54234064 0.5492509 -1.0916064 -0.5865597 -0.888001 -0.14550292 -1.8503692 0.5626103 0.3583266
67 -1.9287658 -0.9134514 -0.031516537 -0.6532838 1.1175461 -1.6000341 -0.14658837 0.18008079 0.29793954 1.4113904 -0.29192376 -1.1746802 0.63333154 -3.2560866 -0.44820637 -1.122025 0.48319677 -0.7644445 0.40879622 0.32903314 -0.20928045 0.5778533 0.38496503 0.50127673 0.6239707 0.32430965 0.97564787 0.6429103 -1.0297221 1.0292927 0.075256415 2.0715322 -0.19232151 -0.92671 -0.84218276 0.922497 0.2036094 -1.1751751 0.4733374 0.40563837 0.901384 -0.20350586 -0.011824537 -0.20270593 0.17611666 -1.3834296 -1.0700009 0.7085735 0.035847545 -0.6526114 -0.4879233 0.2999205 -1.1904188 -0.32136515 0.29521048 -1.6253263 -0.68161243 -0.016242798 -0.6347626 0.60137033 0.06872549 -1.9993403 -0.69179916 -0.24107088
68 2.4223988 -0.42072827 -2.0286798 -0.8773602 -1.8277282 0.4025108 -0.59284186 0.3851661 0.800791 -0.09164536 2.132793 -1.5289161 0.7495164 0.015678823 1.5810134 1.2635243 1.9275074 0.031523924 0.61189306 -0.6131425 -0.7906541 -0.59257084 0.18748611 0.1521322 0.2759768 0.34195784 -1.8692636 -0.28402644 2.4734902 0.077060826 0.7654969 1.3475771 -0.7718834 1.0417088 1.0224301 -0.4192019 -1.9399747 -0.26816636 -0.499769 -0.93446064 -0.7664034 1.7044439 -0.94901735 1.8535624 -0.6389838 -0.12184259 -0.90966964 -0.43249103 2.0056286 -0.7808888 -1.1008657 0.7123775 -0.64126706 -0.52101773 -2.0864482 1.9615991 1.5461601 -0.102128915 -1.0802017 1.4687076 -0.8994457 -0.15166867 1.4561437 -1.4225928
69 0.87881744 -0.32639486 0.30839926 0.46316332 -0.58956164 -1.2263002 -0.5878886 0.10829872 0.2667069 0.1515344 0.7869401 -0.5631811 -1.2211053 -0.9188091 -1.3657582 -0.95188046 0.9113459 -0.18254218 -1.286121 1.1775243 -0.27129903 0.8456793 -0.47551987 0.98479277 0.9911211 0.42206356 0.32980627 -0.64060396 -1.7641058 -0.7517818 0.2535204 -0.9775069 -0.30064762 -0.89739615 0.254335 1.0618441 -1.0082428 -0.8140927 -1.1744049 0.29651627 0.3092412 1.0027089 -2.1795628 0.30676118 0.43443233 -0.059613697 -1.8640076 -0.6254846 -0.807024 -1.1268058 -1.388086 -0.51413935 -0.92482644 0.11482811 2.2912338 -0.8287116 -1.0489063 0.69994193 -0.05794241 -1.7421418 0.5869869 1.353056 0.43559265 -0.12552767
70 1.1651065 0.50297797 0.74427545 1.4775802 0.7294335 -0.9703645 -0.5472392 -1.6909803 -0.8011265 0.9347022 -1.734954 0.017217906 0.17129092 0.9931665 -0.19050884 -1.0329545 -0.81758404 1.7026525 1.1114608 1.2394818 -0.53889 -1.1023228 -0.9360353 -0.01944714 -0.8076706 -0.6008308 -0.35767773 -1.2200519 -1.1753415 1.219741 0.3788191 -1.7269938 -0.56785446 -0.8576103 2.2689254 -0.9187029 -0.43842426 1.9907749 -0.69506234 -0.6253555 0.6568979 0.65236866 -0.27023095 1.2805644 -1.2302423 -1.504263 0.77852863 0.12293902 -0.0661102 0.117818445 0.7101727 1.8970331 -1.8937634 0.5839459 -0.5654227 1.3639129 -0.37804228 0.36186317 -0.8274042 -1.8483031 -1.0332248 0.4959153 -2.2339318 -1.1805844
71 0.29060084 -0.6681737 0.4326113 0.80294245 1.2687839 0.40590456 -0.87905705 -0.7051833 -1.2912011 0.8780598 0.19061542 0.79938126 1.5445753 -1.4412708 1.0101147 -1.582176 0.06250086 -0.27199757 0.55828106 0.2502326 0.42312273 2.1987467 0.14343558 0.25673833 -0.13625774 -0.31549868 0.47384503 1.506905 1.0559319 0.32268295 0.6273641 2.3224003 -0.13442881 1.098807 -1.1778071 0.26748136 -0.96620756 -0.37812957 1.5355597 0.8923364 -0.45307267 1.035106 -0.47496885 1.3402195 -0.023277452 0.2443331 -0.18478012 -1.2853698 2.5578892 0.20725183 -0.11553729 0.64794254 -0.30860326 -1.0233572 -1.7391962 -0.18553147 0.766993 0.6791432 -0.72777194 2.571681 -0.34754303 1.0512928 0.42952475 -1.7923231
72 1.0086796 -0.011283468 -0.22706148 -0.5050529 -0.7793001 0.53312707 0.40551296 0.18227196 1.7199349 0.37836826 0.08294774 0.5810188 -0.32029355 0.3705038 -1.6365373 -0.163286 0.03251002 2.4796498 -0.754825 0.31336707 -2.0846364 1.0258878 0.5517888 0.08773521 -0.3150308 1.3670287 -0.15572275 -0.3767262 0.27110723 0.1777647 -0.38776052 -0.7525626 -0.22370812 0.28043184 -1.2844805 -1.0503609 0.7681784 0.38734376 0.5631839 -0.56764436 -0.13537812 1.1438085 0.60399234 -0.6964068 0.39322773 1.4880191 0.8147183 0.43480796 0.16082993 -0.009782363 -2.9321966 -0.6549057 2.0004492 2.4310603 -0.0056293476 0.44678637 -2.5259438 -1.2046621 0.3725476 -0.4432887 -1.4415364 1.1239204 1.5412203 0.20029089
73 -0.42253527 -0.3680606 -2.2509317 -0.3286848 -0.95578045 -0.26917067 0.50893617 -1.0476171 0.62425315 0.478338 0.109115265 -0.20065635 -0.7695287 -1.717994 -0.38458425 0.7162797 -1.8445544 0.9464583 -1.6626728 -1.0217711 -0.22150265 0.3842746 -0.34832513 -0.67849344 0.039205503 0.31151408 -0.4350567 1.6308055 -0.55063224 1.314558 0.56917936 0.73094785 -0.7066088 0.29625914 -0.37278438 -0.4421536 0.7702573 -1.0475634 2.1824672 -0.8385027 -1.2502458 1.574405 -0.43121582 1.1488531 -0.6167162 1.8993688 -0.24376184 0.7619909 -0.52280855 1.0305194 -0.9508093 -2.1590772 -0.9554521 -1.0729276 0.025318284 0.62009907 0.7897651 -1.4759448 1.0246769 -0.1222501 -0.01049578 -0.3365665 -0.18239921 -0.16266082
74 0.7901846 0.07307466 0.68494546 1.0997511 1.1086272 0.3207221 0.12765223 -0.71736205 0.12933531 0.44802693 0.6517366 -1.5063417 -0.47843382 1.542928 -0.013710505 1.0597967 -0.3056146 0.05457002 0.9996649 0.12821986 -0.93933755 0.9445535 0.9904459 -0.19311501 0.117554754 -1.7764032 -0.6751477 -1.0832467 0.724476 1.0585433 -1.2056329 0.62120736 -1.1109394 0.7890838 -0.5595098 -0.11961816 0.6382862 -1.2203611 -0.95148903 0.50932795 -0.50140953 0.009262474 -0.8477963 0.20955974 -0.20535065 -0.64831597 1.205779 1.3690615 -0.9160694 -1.2132987 0.031325467 -0.6562502 0.23421203 -1.1346003 -0.19575003 1.686571 0.5066139 0.37321958 0.51362246 0.8721607 0.6638178 -0.24661075 -0.054915946 -0.6416288
75 -0.9208485 -0.8844317 1.8239381 -0.4479177 -1.5425442 0.17252436 -1.086376 -0.3136639 -0.4058238 0.30970246 0.40683526 0.72604686 1.7401086 1.4495027 0.014309691 -0.70320934 -0.068705246 1.6121819 -1.965048 0.62345535 -2.488358 2.048232 -2.0930245 -0.6370212 -0.9424875 -0.6649091 -1.3356197 -0.9540766 1.3201443 -0.01322156 2.4963603 0.4847699 -1.6387398 -0.3290034 -0.6560214 -1.0875477 -1.5540178 -0.08323616 1.2285409 -1.6407351 0.49934196 0.5805288 -0.4580612 0.3592169 -0.18814062 0.55221033 1.4791328 -0.55764145 -0.51832205 -0.14196476 0.05350634 0.6345506 0.56815135 1.0555397 -0.69787943 -1.4315416 -0.76247543 0.2353855 -1.558712 1.380501 -1.2169031 1.6943572 -1.3521682 -0.78945625
76 -0.64765936 0.48968828 0.039784256 -1.3621509 -1.8955754 -1.5488727 -0.5331818 -0.08890551 -0.91429245 0.14870864 -0.48113835 1.4318653 -1.655191 1.5283444 1.1089926 2.4969563 0.52403146 0.40599057 0.26115176 -0.087405495 -0.32449695 -0.061017275 0.06686018 -0.65825164 0.28895926 0.94941825 1.2069745 -0.4461865 -1.9823959 -0.53295237 -0.25151765 0.07135195 0.45484516 -1.4696522 -0.42821795 1.3594127 1.8359345 -0.44323155 0.49197045 -1.5724888 -2.012472 0.49891007 -1.6227895 -0.5625998 -0.16375628 -0.24113208 1.0034751 -0.3882707 -0.98764294 -1.4699014 -0.2964856 -0.85263985 -1.1993318 -0.15700266 -0.10650821 0.34059408 -0.99167985 0.9422759 0.38650018 1.2038336 -0.42348135 -1.2338068 -2.0291865 0.25250298
77 -2.198493 -2.2504191 0.5659621 0.25173163 -0.6706301 0.4411361 1.069879 0.2432924 0.24559021 -0.41741776 0.05589084 0.117550515 0.9088496 -0.105048396 -0.37820438 0.16693158 -1.165303 0.67932874 0.08542315 -1.0377729 -2.4223468 -0.33797565 -0.07582334 0.9425911 -0.5492265 -0.6300138 -1.1768062 0.10084792 0.9438221 2.866943 0.59726346 -0.4023294 1.1289357 -1.0216675 -1.2422223 0.82996637 -0.17527395 0.7342354 -1.7900344 -0.31038216 -1.0528666 -0.17681392 -1.6601785 0.40652153 -0.15763594 0.4122731 1.2687411 0.37990257 0.6318919 1.1660752 -0.9663848 -0.6598203 -0.53289247 -1.2093652 -1.5121479 -1.0224037 -2.409927 0.76200324 0.4158092 -0.94319504 -1.1195321 -0.45659116 1.7086816 0.113114685
78 0.041998357 -0.05261704 0.39162657 -0.54525447 -0.18009523 -1.3295779 -0.49845564 0.45580408 -0.19725755 -0.8299388 -0.44554615 -0.018082196 0.5689679 -0.7423449 0.46318227 -0.7451217 1.1565009 0.57097906 1.9041219 1.3143096 1.0601399 -0.92086077 0.32448974 0.2387396 0.19677834 -0.6478878 -0.04156826 -1.758318 0.19046819 0.06419796 -1.6751413 -0.63072133 -0.9293741 -0.59391624 -0.14850387 0.3572252 0.31609866 -0.16009946 0.8819276 -0.45178697 1.5674543 1.2784925 0.7748704 1.3762286 -1.6387657 -0.85003287 1.0416671 0.5335974 -0.340825 1.2379836 0.1804041 0.43970683 -0.1931913 0.48372313 0.846678 0.054829955 -0.2637613 0.35843262 -2.7888532 -0.91244614 -0.5780758 1.058133 0.5889891 0.035035204
79 0.7624352 1.5315456 -1.1812459 0.23768626 -1.6704178 0.95333534 0.92742825 0.46678096 -1.3146785 -0.1342683 -0.53579754 1.0056593 0.60957086 0.4491996 0.2753941 0.105077304 0.31394616 -0.41623232 -0.84752935 -0.67287254 0.54634875 0.14321128 0.78922963 -0.5188359 0.33014315 -0.7261475 -0.59859264 1.62912 -1.4623591 -0.18809292 -0.7125471 -1.1496764 -0.043676518 -0.19042923 -0.5260484 -2.627619 -0.15418491 0.22677478 0.53730136 -0.20712967 -1.5075024 1.1928562 -0.82187414 -1.1894271 -0.28874275 0.8553654 -0.7179698 -0.8891455 -0.8390991 0.8932981 0.38727367 1.2641693 0.3383345 -1.4425167 0.90425247 1.9849026 1.5351385 0.53100824 1.73926 0.9842904 -0.90773183 0.933056 0.14580975 1.4719219
80 1.6552606 -0.7042397 1.3642755 -1.1892885 0.88625205 0.5425875 -0.12700249 -0.58439034 1.8981392 1.4852172 0.60699564 1.3791094 0.61084104 0.56062376 0.9105061 -0.9427364 -0.89530975 0.008610134 0.25123408 -0.51038384 0.90035486 2.0870335 -0.6897042 0.5229608 -0.9801093 -0.7720868 0.0064815455 0.81721586 -0.14726794 -0.17369214 1.439691 0.62520254 -0.117144726 0.1301379 -0.06343578 1.0754074 -0.026698342 -0.20374757 0.21078166 -0.7271379 2.005567 0.59319067 -1.2240404 0.47777575 1.6809976 0.8418181 -0.6404813 -0.48640412 -1.6471374 1.8976576 -1.1532521 -1.2430551 -2.6714935 0.79647833 -2.018293 -0.6039091 0.21598534 -0.15809749 1.524533 0.9350046 -0.36641192 -1.1753637 0.01094076 -0.41226447
81 -0.56621695 0.32250357 0.626724 -0.8696474 0.14906529 0.61295205 -0.39900514 -1.6111028 -0.48698792 -0.22640422 -0.69272333 0.15056059 0.25917205 -0.38358426 0.18169926 0.21633361 0.34495282 1.6164259 -0.20146827 -0.30508804 -0.31432804 -0.6177732 1.9582847 0.52993697 2.0748394 0.9858884 0.5295779 -1.3375579 0.13028708 -1.7316574 0.40990597 1.9069213 -0.13886775 2.905188 -1.5713118 -0.10048375 -0.28032207 -0.7216485 -1.0510472 2.544487 1.1255968 0.30751508 0.39531684 -0.44394007 -0.40770715 0.43696705 0.21021569 0.43514782 0.29224655 -2.5915608 0.4549012 -1.3348976 -0.07226359 -1.8385291 0.79327667 0.46640667 -1.7230821 -1.4890819 0.9203323 -0.9100204 0.8004564 -0.16628172 -1.1963997 1.4085023
82 0.78138596 -0.36952654 -0.7453028 1.8470341 0.7661331 -0.9980685 1.2084391 -1.5583509 -1.6422994 -1.3489807 1.1500847 -0.8180397 2.3145208 -1.1571074 -0.06850013 0.3100113 0.2935211 0.5719203 -1.6366636 -0.5718877 1.0048796 0.20979877 0.8242326 -0.003930324 -2.1239884 0.14804524 0.9000997 -0.12483284 -0.43782324 0.10275647 -0.7277756 0.26427358 0.96333414 -1.3182896 1.4834124 -0.22473003 0.7421242 -0.3284319 -1.2466989 1.2193474 -0.62574655 -0.07274394 1.7837304 0.9176528 -1.8468075 0.065010704 -0.895962 0.86709356 1.6011219 2.2625442 -0.11530899 -1.8552749 0.49585807 1.0713836 -0.34818155 -1.558053 2.3120801 0.83320946 1.2203422 1.854237 -0.48666453 -0.16783713 0.39840263 -0.117030725
83 -0.7483812 0.8240949 -1.241012 -0.34908122 -1.0146099 -0.029547965 -1.4720964 0.4193214 1.3595728 -0.19726178 0.34824893 0.049180098 -0.059455376 -1.6691585 1.0451994 -1.1981385 -0.55033594 1.1708899 1.0960741 -2.4520147 0.07788784 0.24202432 1.8110749 0.4717129 -0.37026757 -0.071321085 0.21069816 1.115394 -0.6993496 0.5288597 -0.3981466 1.6891303 0.33052358 0.39297763 -0.67555606 -1.1673948 0.35948697 0.36822763 -0.5627295 2.0263126 1.8173732 1.2514713 1.6977229 -1.2564815 0.40940708 1.0822843 0.17499271 -1.1884745 0.8759536 -1.2249473 -0.2754334 -0.46680808 0.26258495 -0.45431745 -0.05278979 -0.02288714 0.6725113 -0.09480012 -1.1631421 -0.35374105 -0.42937174 1.4916008 -1.6609113 -0.27621406
84 0.62745994 0.23933257 0.08073071 0.17815886 0.039514948 0.064513534 -1.3097075 2.1372414 1.2583604 -0.7692303 -2.2532756 0.9620699 -0.66141856 0.06995829 -0.4853114 -1.3090432 -1.5621674 -1.900096 -0.03457684 -0.12321609 0.8339516 0.4082046 -1.5253997 -0.24423005 -0.27749014 -0.7826684 0.060323246 1.6609411 0.23981316 0.4569433 0.34939978 -1.565802 -0.08209859 -0.7285249 1.3398905 -0.865994 0.10137123 -0.8049732 -0.035748813 0.83405447 2.2453086 0.23486856 1.1936139 0.26779315 -0.4851197 0.1846957 0.18854545 -1.6607981 -1.8855518 -0.23591721 1.7149107 1.4451361 -1.7249826 -1.0935758 0.1942749 -1.0299145 -0.27756143 -0.81725276 0.7862692 2.2356954 -0.82024896 -0.80962104 -0.8956831 -0.57921684
85 -1.5825804 -0.04346322 0.22328684 0.37782833 0.931135 -1.7884802 -0.6293122 1.4636505 2.292486 -0.08385784 -0.62890524 -1.4202154 0.28333545 0.57760096 0.11631613 0.9716325 -0.9547775 -0.15332985 0.36237952 -1.7321831 0.27222398 -0.76315075 -0.7052554 -1.1477523 -0.015465754 -0.8559248 0.11665257 -0.30183834 2.9564803 -0.6325733 1.1427402 -0.498114 -0.62305677 1.2741643 0.16627043 -0.017696856 1.2199854 -1.6140698 -0.3162401 0.4838522 -0.35801336 0.6523467 -1.2838368 0.5814442 -1.7125993 0.11278662 0.40478042 -0.30217442 1.3533871 -1.4720792 -0.78021497 -0.19826971 -0.09981618 -1.7650858 -1.2184788 -0.05476277 0.17692393 -1.0022949 0.101820454 -0.66011167 0.35680985 -0.44291863 -1.6454078 -0.0043180026
86 -0.66989094 -0.23107369 -0.40358993 -2.3642638 -0.58630747 -0.2053074 -1.4064584 0.92211866 1.298821 0.51557785 0.3754695 0.85854006 -0.1766063 0.39169815 1.2848647 1.5852511 1.6477842 -1.2099844 -1.4415889 1.9100616 0.04798271 -0.6996119 -0.65241367 -1.3205342 -0.61874276 0.061655365 2.0165284 0.6018289 -0.025706729 0.19633009 -0.34623078 -0.3361409 -1.0436599 -0.70957804 -0.4597234 -0.62665856 0.1780081 -1.0193322 0.010229421 0.9103717 -0.5332047 0.4192863 -0.5238716 -0.761208 -0.18100533 0.70141584 -0.41452974 -0.20482513 -1.7296194 0.25452897 -0.50950587 -0.593043 -3.1901753 0.5765554 1.1365972 1.8664479 0.7789763 0.10613639 0.42243502 0.35904557 -0.21790329 -1.5242925 -0.3019943 0.13312353
87 0.33961576 0.55475694 0.47514042 -0.090466104 -0.6061388 -0.8461923 -0.3221178 0.9093372 1.1798198 -0.19494247 -0.83918566 -0.5038233 0.21573113 1.5655203 -0.8270012 0.28269437 -1.1532142 -0.14534877 0.95277417 0.27718258 0.1579803 0.2156215 -1.6730899 0.18277696 -0.22100572 1.1717008 0.18718791 0.040932164 -0.85917205 -0.2019158 0.9072812 -0.41875818 0.036108468 -0.6901052 1.100093 -0.5380917 0.22852983 1.5432571 -0.2984406 0.5173893 2.8140485 -0.09708216 0.28481838 0.5440876 -0.43824503 2.254584 -0.65119594 -0.42055973 0.16907807 0.8237856 0.7495945 0.30975506 1.316639 -0.13655154 -1.8502533 -0.1129482 0.30334342 0.6593695 -1.4712167 -0.4402488 0.26107922 0.8704963 -0.091680154 0.30113655
88 0.45821017 1.146573 -1.1433936 0.7576239 -0.20324369 0.65243137 0.41857994 0.6228602 -0.02046048 0.6017322 -0.707004 0.72484785 1.1078395 1.904402 0.30123508 -0.47556433 0.7730095 -0.07595208 0.8739741 -1.8405595 -2.12079 -0.10390013 1.4119998 -0.7443759 -0.21264462 1.0922623 0.29126462 -0.52106655 -0.03076832 0.83680654 0.73026997 -0.043636452 -0.17873164 0.66974735 -0.30605453 0.26702848 0.17697299 1.6207417 -0.69128066 -0.28836185 0.29826823 0.06394632 0.2639914 -2.8881187 0.15345474 0.23146516 -0.30271375 0.34160343 -1.0890291 1.3234726 1.1432631 -0.3833922 -1.3716743 -0.3511022 -0.010247646 -0.7008564 0.7315493 -1.2405651 0.5736188 0.38671997 -1.7104833 0.5936326 0.19776522 -0.25795534
89 1.0094239 2.3662462 0.034856256 -0.013592833 -0.10841168 -0.52423793 0.47398332 -0.20964059 0.11284997 -0.22406977 -2.054042 0.5952528 0.19853237 1.0303959 -0.43894896 -1.050029 -0.56761307 -0.66134673 -0.85126114 0.236046 0.748589 0.4090714 0.7849513 -3.0595715 1.7686952 0.7808841 -0.4034388 0.9232502 1.300817 0.08722535 0.24438612 0.49379835 -1.5600703 0.4928301 -0.47081503 0.6016381 -0.62622386 -1.2169492 0.1991078 0.76314634 -0.2522011 0.2002904 0.4739479 -0.8098001 -0.0036493852 0.16312963 -1.0080167 -0.2839273 -0.8700676 0.10971549 -1.1309826 1.2556185 0.7099301 -0.3012146 0.97806144 -0.11689426 2.1522126 1.7566339 -1.0399318 -1.8225139 0.6074793 -0.71696496 -1.1695256 0.52054924
90 0.414401 -0.7424771 -0.38218328 0.41090894 0.13603385 0.6711731 -0.4562119 0.13823295 1.8566425 -1.4134101 -1.9555479 1.7390922 0.6229338 0.11308399 0.7581337 -0.2187222 -0.24039324 -0.58836794 -0.89379 -0.17414208 0.30357543 -0.6524553 0.289555 -0.8112495 1.2577218 2.3121314 1.0778881 0.09360104 0.8280645 1.078646 3.215832 1.4467559 -0.11341586 0.7533655 0.20631287 0.53416777 1.0317299 0.7458542 -0.10778691 1.372146 -0.098358415 0.42277592 0.4369442 -2.142975 0.32552388 0.63736284 0.078371875 1.2580168 0.6827998 0.69800067 0.28764188 1.0519285 0.62226516 1.3624835 0.48854354 -0.5701779 0.8824165 0.78280765 -1.0374131 -0.42740852 -0.116728425 0.99811167 -0.1081915 0.70077515
91 -0.8707569 -0.62628263 1.5224662 0.8211248 -0.7477162 -2.0171049 1.152772 -0.13809848 -1.4074326 -0.08025752 1.0816438 -0.45939425 -0.011986571 0.08298194 -2.3448768 -1.2132459 -1.6627758 0.19190219 0.9528331 0.33387694 1.7251979 -0.04020722 1.1689273 1.3747607 0.13951029 0.41582328 -1.1345779 -0.9250517 -0.002495967 -0.29525492 0.90717816 -2.279436 0.3854216 0.53909844 -0.047765795 0.4812808 0.49300286 -0.9819422 0.033494323 1.1252216 -0.024878459 -0.6213074 -1.7172506 -0.53670377 0.103278905 -0.69478625 -0.61347824 -0.38705504 -0.117231876 0.5963786 1.2177067 0.59049064 -0.31396687 1.662498 -1.1387862 0.8306239 0.102498084 0.24588987 -1.0061014 0.0117120715 -0.30538917 0.45743576 0.23595996 -1.455381
92 -0.19072363 1.0057241 0.5642994 0.78942806 -0.9087808 -0.42847618 -0.9307709 2.0425653 1.4426173 0.086191796 1.3634111 0.1273472 -0.027982054 -0.3310054 -1.049043 -0.7361872 -0.83632123 -1.854181 0.08737787 -0.7282679 -0.28833514 -0.7141028 -0.49814072 0.9342579 0.21323806 1.7509044 0.7508112 -0.5399394 0.79028183 0.061158568 0.542015 1.6733574 0.66157246 0.6604962 0.43857175 0.7438306 0.58736414 -0.20887034 0.6021474 -0.86672413 -1.2494617 0.7946236 -0.63421357 0.20006822 -0.36944932 1.5349053 1.351972 -1.4309597 -0.22046074 -0.02791903 -0.090887055 0.8039059 -0.3574005 -0.5849108 -0.009985881 1.2077345 -0.16816719 0.27101976 1.2688855 0.6842581 -1.9345444 -0.69281167 -0.3181932 -0.0064540943
93 -0.29232854 -0.21931681 -1.1881284 -0.80562705 -0.37899998 -0.38134348 -1.5949541 0.86957955 -1.0066514 -0.40911216 1.4237688 -1.5885912 -0.5909033 0.8840338 0.77195895 1.4301077 1.5929099 -0.45994776 1.9599868 2.9145079 1.23306 -1.8228481 0.5234676 1.4472616 -0.29759246 0.31004527 0.6737716 -0.8657083 -0.24257417 -0.97764426 0.85237736 -1.0047051 -0.23360354 -0.67193943 0.8690242 0.388566 1.9750427 -1.9656297 0.16599005 -0.67519116 1.3747371 0.41010085 1.4443055 -0.26562777 -0.5298806 -0.14145727 -0.49535114 -1.8786176 -0.5791446 -1.5883627 -1.3728205 1.5461608 -1.6128455 0.9423958 -1.2194097 -0.06801051 -0.3080668 -0.5543674 0.5543421 0.3926619 -1.1818966 -0.8598733 0.6925674 -0.15636444
94 -0.48091087 1.3683677 1.0224953 0.17261887 -0.4322191 1.4708524 -0.18034162 -0.31857157 -0.42431623 0.05993732 -0.4092488 0.22457086 1.6562462 -0.39533558 0.70185226 0.84518677 0.4047271 0.20567748 -0.95900923 -0.017225014 -0.692 0.42815176 1.5935706 0.30031002 0.68341565 -0.2130279 -0.15547912 0.94153875 -0.9255257 0.030160064 0.62855864 -0.06290926 1.2337224 -0.7671525 0.28377044 2.2831876 0.1250133 0.13805257 -0.55387175 -0.9862063 0.73901737 0.7610073 -1.2089932 -0.42320016 0.023234492 -1.0264758 -1.278272 -1.1705401 -0.4426322 0.7127615 -1.2928836 1.1940469 0.123661876 0.2091163 1.9905448 -0.33929405 -0.65601766 0.052549053 0.06606637 0.6221962 -0.085340254 0.17567742 -1.4550846 0.22759616
95 -1.9574223 0.4670091 0.7325342 0.008980988 -0.88059646 0.45693928 -1.6199682 0.6052476 1.0998856 -0.9667753 0.96924925 -0.45878083 0.9414129 0.26670197 -0.51838523 -2.0967839 0.69471884 1.2063673 -0.33610868 -1.8388911 3.318916 -2.0016239 0.8320235 0.772861 -0.017830392 -0.33398438 -0.6860439 -0.7869943 0.111393124 0.8300068 0.76556855 -0.1797096 -0.55090296 -1.0539356 0.8452411 0.19089337 0.5466875 0.61060005 1.3017567 1.1108218 0.09387047 1.6746709 -0.35748616 0.47323546 0.5049254 1.3023185 -0.10191512 1.2065325 -1.8435094 0.035461504 0.7495144 -0.3643344 -0.85828394 0.61180776 -0.83146465 0.04290486 -1.9746846 0.4155752 1.6793692 0.60381895 -0.98095655 -0.3020555 -0.17785671 -1.1860679
96 0.5563199 0.1373968 1.11539 -1.386846 1.1263775 -0.27759898 1.2522035 -1.060713 -0.6023945 0.52699584 0.5594411 -0.41720697 -0.9869147 0.5451323 -0.17202032 0.12466538 -0.49373496 -1.5495319 -0.7683085 -1.3019946 1.8918025 0.54410917 1.446963 -0.21850835 -1.2466954 1.0445931 0.06490031 -0.7951441 0.35152182 0.31434244 0.7685845 -0.26545706 1.9928325 1.2982006 -0.2971491 1.2500279 0.42832994 0.528338 -1.3646302 0.63691443 -0.7129561 -0.7596126 0.35871804 -0.26624483 -2.266198 2.1117885 -1.100518 0.8106121 2.2004604 -0.17193078 0.81453717 0.96064997 0.30052334 -1.7805613 -0.84929216 -0.6216868 -0.23723646 1.0691525 0.97683793 0.23815879 -0.5461402 -1.7305841 -0.5080047 0.6904092
97 1.3164011 -0.7684481 0.90952724 0.93539137 -0.7733818 -0.18380976 -0.7679513 0.7867663 0.4919761 -0.57181054 -0.12603295 -0.10622918 -0.22112425 -0.6534757 1.8318087 -1.0707121 -1.072987 -0.33247542 0.32950357 0.5488147 1.5628359 -0.39150923 -0.953591 -0.5499974 -0.9124563 -1.0687544 -0.2489729 -0.01667922 -0.22252575 0.2700752 -0.08389547 -0.75326836 -0.6042148 -0.40559262 -1.9431794 -0.36099347 0.13510491 -3.0157356 0.24530163 0.74266964 -0.48827526 0.6044881 2.0774748 1.576205 -1.3438791 -0.9075696 0.2148611 -0.29243773 1.1980584 -0.66077274 0.027731359 -0.08545647 -0.784675 -0.40189987 1.9827496 -0.27755687 -0.5041283 0.029746408 -1.4519653 -0.012153512 -0.88006485 0.68285114 0.43844503 -0.27214327
